{"learner":{"attributes":{"scikit_learn":"{\"_estimator_type\": \"regressor\"}"},"feature_names":["humidity","hour","day","month","pressure","day_of_week","year","weather_Clear","weather_Cloudy","weather_Foggy","weather_Sunny","city_Bangalore","city_Chennai","city_Delhi","city_Hyderabad","city_Jaipur","city_Kolkata","city_Mumbai","city_Nagpur","city_Pune","city_Surat"],"feature_types":["float","float","float","float","float","int","float","i","i","i","i","i","i","i","i","i","i","i","i","i","i"],"gradient_booster":{"model":{"gbtree_model_param":{"num_parallel_tree":"1","num_trees":"200"},"iteration_indptr":[0,1,2,3,4,5,6,7,8,9,10,11,12,13,14,15,16,17,18,19,20,21,22,23,24,25,26,27,28,29,30,31,32,33,34,35,36,37,38,39,40,41,42,43,44,45,46,47,48,49,50,51,52,53,54,55,56,57,58,59,60,61,62,63,64,65,66,67,68,69,70,71,72,73,74,75,76,77,78,79,80,81,82,83,84,85,86,87,88,89,90,91,92,93,94,95,96,97,98,99,100,101,102,103,104,105,106,107,108,109,110,111,112,113,114,115,116,117,118,119,120,121,122,123,124,125,126,127,128,129,130,131,132,133,134,135,136,137,138,139,140,141,142,143,144,145,146,147,148,149,150,151,152,153,154,155,156,157,158,159,160,161,162,163,164,165,166,167,168,169,170,171,172,173,174,175,176,177,178,179,180,181,182,183,184,185,186,187,188,189,190,191,192,193,194,195,196,197,198,199,200],"tree_info":[0,0,0,0,0,0,0,0,0,0,0,0,0,0,0,0,0,0,0,0,0,0,0,0,0,0,0,0,0,0,0,0,0,0,0,0,0,0,0,0,0,0,0,0,0,0,0,0,0,0,0,0,0,0,0,0,0,0,0,0,0,0,0,0,0,0,0,0,0,0,0,0,0,0,0,0,0,0,0,0,0,0,0,0,0,0,0,0,0,0,0,0,0,0,0,0,0,0,0,0,0,0,0,0,0,0,0,0,0,0,0,0,0,0,0,0,0,0,0,0,0,0,0,0,0,0,0,0,0,0,0,0,0,0,0,0,0,0,0,0,0,0,0,0,0,0,0,0,0,0,0,0,0,0,0,0,0,0,0,0,0,0,0,0,0,0,0,0,0,0,0,0,0,0,0,0,0,0,0,0,0,0,0,0,0,0,0,0,0,0,0,0,0,0,0,0,0,0,0,0],"trees":[{"base_weights":[6.228077E-7,-5.009469E0,1.412928E0,-6.675925E-1,1.6597228E-1,2.0413609E0,-2.38368E0,1.3203131E0,4.6339294E-1,-2.945312E-1,-8.402774E-1,-5.664003E-2,2.9134622E0,-1.130208E-1,-1.3020801E-2,-8.2765095E-2,1.3663201E-1,3.0946186E-1,3.69792E-2],"categories":[],"categories_nodes":[],"categories_segments":[],"categories_sizes":[],"default_left":[0,0,0,0,0,0,0,0,0,0,0,0,0,0,0,0,0,0,0],"id":0,"left_children":[1,3,5,-1,-1,7,9,11,-1,-1,13,15,17,-1,-1,-1,-1,-1,-1],"loss_changes":[3.5390085E2,1.3333325E2,9.791657E1,0E0,0E0,5.74402E1,2.7260666E0,6.158839E1,0E0,0E0,4.7045064E-1,1.868472E1,4.8460617E0,0E0,0E0,0E0,0E0,0E0,0E0],"parents":[2147483647,0,0,1,1,2,2,5,5,6,6,7,7,10,10,11,11,12,12],"right_children":[2,4,6,-1,-1,8,10,12,-1,-1,14,16,18,-1,-1,-1,-1,-1,-1],"split_conditions":[4E-1,4.5714286E-1,1E0,-6.675925E-1,1.6597228E-1,1E0,1E0,6.571429E-1,4.6339294E-1,-2.945312E-1,3.7142858E-1,8E-1,6E0,-1.130208E-1,-1.3020801E-2,-8.2765095E-2,1.3663201E-1,3.0946186E-1,3.69792E-2],"split_indices":[4,0,11,0,0,17,10,0,0,0,0,2,5,0,0,0,0,0,0],"split_type":[0,0,0,0,0,0,0,0,0,0,0,0,0,0,0,0,0,0,0],"sum_hessian":[4.8E1,1E1,3.8E1,8E0,2E0,3.3E1,5E0,2.7E1,6E0,3E0,2E0,1.5E1,1.2E1,1E0,1E0,1E1,5E0,1.1E1,1E0],"tree_param":{"num_deleted":"0","num_feature":"21","num_nodes":"19","size_leaf_vector":"1"}},{"base_weights":[-1.1929492E-3,-4.5541234E0,1.2829976E0,-6.08251E-1,1.5490748E-1,1.862628E0,-2.2154076E0,1.2025787E0,4.236736E-1,-2.724414E-1,-7.9826355E-1,-2.4331774E-1,2.47191E0,-1.073698E-1,-1.2369729E-2,-1.2134671E-1,1.2524591E-1,1.7598328E-1,3.5440978E-1],"categories":[],"categories_nodes":[],"categories_segments":[],"categories_sizes":[],"default_left":[0,0,0,0,0,0,0,0,0,0,0,0,0,0,0,0,0,0,0],"id":1,"left_children":[1,3,5,-1,-1,7,9,11,-1,-1,13,15,17,-1,-1,-1,-1,-1,-1],"loss_changes":[2.9233765E2,1.1203073E2,8.3209984E1,0E0,0E0,4.8183952E1,2.1532116E0,5.1990463E1,0E0,0E0,4.2458296E-1,2.1835596E1,5.215187E0,0E0,0E0,0E0,0E0,0E0,0E0],"parents":[2147483647,0,0,1,1,2,2,5,5,6,6,7,7,10,10,11,11,12,12],"right_children":[2,4,6,-1,-1,8,10,12,-1,-1,14,16,18,-1,-1,-1,-1,-1,-1],"split_conditions":[4E-1,4.5714286E-1,1E0,-6.08251E-1,1.5490748E-1,1E0,1E0,6E-1,4.236736E-1,-2.724414E-1,3.7142858E-1,8E-1,9.142857E-1,-1.073698E-1,-1.2369729E-2,-1.2134671E-1,1.2524591E-1,1.7598328E-1,3.5440978E-1],"split_indices":[4,0,11,0,0,17,10,0,0,0,0,2,0,0,0,0,0,0,0],"split_type":[0,0,0,0,0,0,0,0,0,0,0,0,0,0,0,0,0,0,0],"sum_hessian":[4.8E1,1E1,3.8E1,8E0,2E0,3.3E1,5E0,2.7E1,6E0,3E0,2E0,1.3E1,1.4E1,1E0,1E0,8E0,5E0,1E1,4E0],"tree_param":{"num_deleted":"0","num_feature":"21","num_nodes":"19","size_leaf_vector":"1"}},{"base_weights":[1.2212481E-3,-4.1399236E0,1.1692052E0,-5.5418414E-1,1.4458033E-1,1.7045407E0,-2.05923E0,1.1014026E0,3.873587E-1,-2.5200826E-1,-7.583504E-1,-2.1870708E-1,2.2600782E0,-1.0200129E-1,-1.1751271E-2,-1.10560276E-1,1.1480875E-1,1.5998478E-1,3.26057E-1],"categories":[],"categories_nodes":[],"categories_segments":[],"categories_sizes":[],"default_left":[0,0,0,0,0,0,0,0,0,0,0,0,0,0,0,0,0,0,0],"id":2,"left_children":[1,3,5,-1,-1,7,9,11,-1,-1,13,15,17,-1,-1,-1,-1,-1,-1],"loss_changes":[2.4184317E2,9.415042E1,7.091359E1,0E0,0E0,4.0213585E1,1.685976E0,4.332251E1,0E0,0E0,3.8318503E-1,1.8240187E1,4.69191E0,0E0,0E0,0E0,0E0,0E0,0E0],"parents":[2147483647,0,0,1,1,2,2,5,5,6,6,7,7,10,10,11,11,12,12],"right_children":[2,4,6,-1,-1,8,10,12,-1,-1,14,16,18,-1,-1,-1,-1,-1,-1],"split_conditions":[4E-1,4.5714286E-1,1E0,-5.5418414E-1,1.4458033E-1,1E0,1E0,6E-1,3.873587E-1,-2.5200826E-1,3.7142858E-1,8E-1,9.142857E-1,-1.0200129E-1,-1.1751271E-2,-1.10560276E-1,1.1480875E-1,1.5998478E-1,3.26057E-1],"split_indices":[4,0,11,0,0,17,10,0,0,0,0,2,0,0,0,0,0,0,0],"split_type":[0,0,0,0,0,0,0,0,0,0,0,0,0,0,0,0,0,0,0],"sum_hessian":[4.8E1,1E1,3.8E1,8E0,2E0,3.3E1,5E0,2.7E1,6E0,3E0,2E0,1.3E1,1.4E1,1E0,1E0,8E0,5E0,1E1,4E0],"tree_param":{"num_deleted":"0","num_feature":"21","num_nodes":"19","size_leaf_vector":"1"}},{"base_weights":[3.1862454E-3,-3.7631683E0,1.0654097E0,-5.0492334E-1,1.3494162E-1,1.5598994E0,-1.9142672E0,1.8318572E0,-1.8609492E-1,-2.3310761E-1,-7.2043294E-1,2.2567928E0,-8.168901E-3,-9.690123E-2,-1.1163712E-2,2.7114066E-1,-1.9486694E-2,1.075264E-1,-6.5659486E-2],"categories":[],"categories_nodes":[],"categories_segments":[],"categories_sizes":[],"default_left":[0,0,0,0,0,0,0,0,0,0,0,0,0,0,0,0,0,0,0],"id":3,"left_children":[1,3,5,-1,-1,7,9,11,-1,-1,13,15,17,-1,-1,-1,-1,-1,-1],"loss_changes":[2.000441E2,7.91398E1,6.0449432E1,0E0,0E0,3.5040077E1,1.3062229E0,2.5039001E1,0E0,0E0,3.4582448E-1,2.9506897E1,5.6236944E0,0E0,0E0,0E0,0E0,0E0,0E0],"parents":[2147483647,0,0,1,1,2,2,5,5,6,6,7,7,10,10,11,11,12,12],"right_children":[2,4,6,-1,-1,8,10,12,-1,-1,14,16,18,-1,-1,-1,-1,-1,-1],"split_conditions":[4E-1,4.5714286E-1,1E0,-5.0492334E-1,1.3494162E-1,1E0,1E0,1E0,-1.8609492E-1,-2.3310761E-1,3.7142858E-1,1E0,4.857143E-1,-9.690123E-2,-1.1163712E-2,2.7114066E-1,-1.9486694E-2,1.075264E-1,-6.5659486E-2],"split_indices":[4,0,11,0,0,15,10,18,0,0,0,19,0,0,0,0,0,0,0],"split_type":[0,0,0,0,0,0,0,0,0,0,0,0,0,0,0,0,0,0,0],"sum_hessian":[4.8E1,1E1,3.8E1,8E0,2E0,3.3E1,5E0,3.1E1,2E0,3E0,2E0,2.5E1,6E0,1E0,1E0,2.1E1,4E0,2E0,4E0],"tree_param":{"num_deleted":"0","num_feature":"21","num_nodes":"19","size_leaf_vector":"1"}},{"base_weights":[-9.453598E-3,-3.4204865E0,9.52875E-1,-4.6004128E-1,1.2594554E-1,1.4070687E0,-1.7797022E0,8.812941E-1,3.3091578E-1,-2.1562448E-1,-6.8441135E-1,-8.6656475E-1,1.5051787E0,-9.205618E-2,-1.0605526E-2,-1.6984494E-1,3.8993217E-2,1.7916115E-1,-1.6006375E-2],"categories":[],"categories_nodes":[],"categories_segments":[],"categories_sizes":[],"default_left":[0,0,0,0,0,0,0,0,0,0,0,0,0,0,0,0,0,0,0],"id":4,"left_children":[1,3,5,-1,-1,7,9,11,-1,-1,13,15,17,-1,-1,-1,-1,-1,-1],"loss_changes":[1.6410349E2,6.653587E1,5.0907818E1,0E0,0E0,3.1086052E1,9.987831E-1,3.1837275E1,0E0,0E0,3.121066E-1,9.0243635E0,1.0303356E1,0E0,0E0,0E0,0E0,0E0,0E0],"parents":[2147483647,0,0,1,1,2,2,5,5,6,6,7,7,10,10,11,11,12,12],"right_children":[2,4,6,-1,-1,8,10,12,-1,-1,14,16,18,-1,-1,-1,-1,-1,-1],"split_conditions":[4E-1,4.5714286E-1,1E0,-4.6004128E-1,1.2594554E-1,1E0,1E0,5.4285717E-1,3.3091578E-1,-2.1562448E-1,3.7142858E-1,8E-1,1E0,-9.205618E-2,-1.0605526E-2,-1.6984494E-1,3.8993217E-2,1.7916115E-1,-1.6006375E-2],"split_indices":[4,0,11,0,0,17,10,0,0,0,0,2,18,0,0,0,0,0,0],"split_type":[0,0,0,0,0,0,0,0,0,0,0,0,0,0,0,0,0,0,0],"sum_hessian":[4.8E1,1E1,3.8E1,8E0,2E0,3.3E1,5E0,2.7E1,6E0,3E0,2E0,7E0,2E1,1E0,1E0,4E0,3E0,1.7E1,3E0],"tree_param":{"num_deleted":"0","num_feature":"21","num_nodes":"19","size_leaf_vector":"1"}},{"base_weights":[-1.4409551E-2,-3.1088104E0,8.587397E-1,-4.191488E0,1.1754914E-1,1.2770449E0,-1.65478E0,-4.4072458E-1,-1.2327118E-1,1.5156043E0,-1.6932692E-1,-1.9945268E-1,-6.50191E-1,1.050797E0,3.025516E-1,-8.7453365E-2,-1.0075283E-2,6.419688E-2,2.639482E-1],"categories":[],"categories_nodes":[],"categories_segments":[],"categories_sizes":[],"default_left":[0,0,0,0,0,0,0,0,0,0,0,0,0,0,0,0,0,0,0],"id":5,"left_children":[1,3,5,7,-1,9,11,-1,-1,13,-1,-1,15,17,-1,-1,-1,-1,-1],"loss_changes":[1.3506146E2,5.5950745E1,4.3118553E1,3.1254578E-1,0E0,2.6658588E1,7.510128E-1,0E0,0E0,1.9278961E1,0E0,0E0,2.8167558E-1,1.519252E1,0E0,0E0,0E0,0E0,0E0],"parents":[2147483647,0,0,1,1,2,2,3,3,5,5,6,6,9,9,12,12,13,13],"right_children":[2,4,6,8,-1,10,12,-1,-1,14,-1,-1,16,18,-1,-1,-1,-1,-1],"split_conditions":[4E-1,4.5714286E-1,1E0,1E0,1.1754914E-1,1E0,1E0,-4.4072458E-1,-1.2327118E-1,1E0,-1.6932692E-1,-1.9945268E-1,3.7142858E-1,9.142857E-1,3.025516E-1,-8.7453365E-2,-1.0075283E-2,6.419688E-2,2.639482E-1],"split_indices":[4,0,11,10,0,15,10,0,0,17,0,0,0,0,0,0,0,0,0],"split_type":[0,0,0,0,0,0,0,0,0,0,0,0,0,0,0,0,0,0,0],"sum_hessian":[4.8E1,1E1,3.8E1,8E0,2E0,3.3E1,5E0,7E0,1E0,3.1E1,2E0,3E0,2E0,2.5E1,6E0,1E0,1E0,2.1E1,4E0],"tree_param":{"num_deleted":"0","num_feature":"21","num_nodes":"19","size_leaf_vector":"1"}},{"base_weights":[-1.8725025E-2,-2.838515E0,7.770805E-1,-3.8350043E-1,1.09712474E-1,1.1629097E0,-1.5387987E0,1.3837526E0,-1.5803847E-1,-1.8449369E-1,-6.176815E-1,9.583377E-1,2.7661863E-1,-8.308067E-2,-9.571552E-3,2.0467458E-2,1.6962567E-1],"categories":[],"categories_nodes":[],"categories_segments":[],"categories_sizes":[],"default_left":[0,0,0,0,0,0,0,0,0,0,0,0,0,0,0,0,0],"id":6,"left_children":[1,3,5,-1,-1,7,9,11,-1,-1,13,15,-1,-1,-1,-1,-1],"loss_changes":[1.1216197E2,4.7347534E1,3.6637306E1,0E0,0E0,2.2785328E1,5.52351E-1,1.6168514E1,0E0,0E0,2.542113E-1,1.411252E1,0E0,0E0,0E0,0E0,0E0],"parents":[2147483647,0,0,1,1,2,2,5,5,6,6,7,7,10,10,11,11],"right_children":[2,4,6,-1,-1,8,10,12,-1,-1,14,16,-1,-1,-1,-1,-1],"split_conditions":[4E-1,4.5714286E-1,1E0,-3.8350043E-1,1.09712474E-1,1E0,1E0,1E0,-1.5803847E-1,-1.8449369E-1,3.7142858E-1,6.571429E-1,2.7661863E-1,-8.308067E-2,-9.571552E-3,2.0467458E-2,1.6962567E-1],"split_indices":[4,0,11,0,0,15,10,17,0,0,0,0,0,0,0,0,0],"split_type":[0,0,0,0,0,0,0,0,0,0,0,0,0,0,0,0,0],"sum_hessian":[4.8E1,1E1,3.8E1,8E0,2E0,3.3E1,5E0,3.1E1,2E0,3E0,2E0,2.5E1,6E0,1E0,1E0,1.3E1,1.2E1],"tree_param":{"num_deleted":"0","num_feature":"21","num_nodes":"17","size_leaf_vector":"1"}},{"base_weights":[-2.1796752E-2,4.8040783E-1,-3.7009976E0,8.9241195E-1,-2.2776868E0,-4.355898E-1,-1.5941314E-1,1.2761978E0,-1.4311098E0,-2.5006968E-1,-5.8131885E-2,1.5631586E0,-5.3959437E-2,-1.7065664E-1,-5.867977E-1,1.8759216E-1,-2.5073547E-2,9.2114E-2,-6.282272E-2,-7.892666E-2,-9.092999E-3],"categories":[],"categories_nodes":[],"categories_segments":[],"categories_sizes":[],"default_left":[0,0,0,0,0,0,0,0,0,0,0,0,0,0,0,0,0,0,0,0,0],"id":7,"left_children":[1,3,5,7,9,-1,-1,11,13,-1,-1,15,17,-1,19,-1,-1,-1,-1,-1,-1],"loss_changes":[9.2315865E1,5.203187E1,1.3348465E0,3.6604034E1,8.161373E-1,0E0,0E0,1.3062244E1,3.9401722E-1,0E0,0E0,1.6355286E1,4.4984627E0,0E0,2.2942531E-1,0E0,0E0,0E0,0E0,0E0,0E0],"parents":[2147483647,0,0,1,1,2,2,3,3,4,4,7,7,8,8,11,11,12,12,14,14],"right_children":[2,4,6,8,10,-1,-1,12,14,-1,-1,16,18,-1,20,-1,-1,-1,-1,-1,-1],"split_conditions":[1E0,1E0,8E-1,1E0,8E-1,-4.355898E-1,-1.5941314E-1,1E0,1E0,-2.5006968E-1,-5.8131885E-2,1E0,4.857143E-1,-1.7065664E-1,3.7142858E-1,1.8759216E-1,-2.5073547E-2,9.2114E-2,-6.282272E-2,-7.892666E-2,-9.092999E-3],"split_indices":[13,15,2,11,2,0,0,18,10,0,0,19,0,0,0,0,0,0,0,0,0],"split_type":[0,0,0,0,0,0,0,0,0,0,0,0,0,0,0,0,0,0,0,0,0],"sum_hessian":[4.8E1,4.3E1,5E0,3.8E1,5E0,3E0,2E0,3.3E1,5E0,4E0,1E0,2.7E1,6E0,3E0,2E0,2.3E1,4E0,2E0,4E0,1E0,1E0],"tree_param":{"num_deleted":"0","num_feature":"21","num_nodes":"21","size_leaf_vector":"1"}},{"base_weights":[-3.9414193E-2,-2.3976784E0,6.2674785E-1,-3.2301364E0,8.98922E-2,9.538188E-1,-1.3311119E0,-3.420331E0,-8.5429005E-2,5.661356E-1,2.3682916E-1,-1.5939513E-1,-5.3695554E-1,-3.816513E-1,-1.4878565E-1,-7.377207E-1,1.0358839E0,-8.638382E-3,-7.190495E-2,-1.4752907E-1,3.686719E-2,6.464803E-2,2.1526794E-1],"categories":[],"categories_nodes":[],"categories_segments":[],"categories_sizes":[],"default_left":[0,0,0,0,0,0,0,0,0,0,0,0,0,0,0,0,0,0,0,0,0,0,0],"id":8,"left_children":[1,3,5,7,-1,9,11,13,-1,15,-1,-1,17,-1,-1,19,21,-1,-1,-1,-1,-1,-1],"loss_changes":[7.848106E1,3.3090733E1,2.624364E1,1.1449051E0,0E0,1.730371E1,3.965311E-1,4.4647217E-1,0E0,1.7913754E1,0E0,0E0,1.8402487E-1,0E0,0E0,7.072233E0,7.740904E0,0E0,0E0,0E0,0E0,0E0,0E0],"parents":[2147483647,0,0,1,1,2,2,3,3,5,5,6,6,7,7,9,9,12,12,15,15,16,16],"right_children":[2,4,6,8,-1,10,12,14,-1,16,-1,-1,18,-1,-1,20,22,-1,-1,-1,-1,-1,-1],"split_conditions":[4E-1,4.5714286E-1,1E0,1E0,8.98922E-2,1E0,6E-1,8E-1,-8.5429005E-2,5.4285717E-1,2.3682916E-1,-1.5939513E-1,4.2857143E-1,-3.816513E-1,-1.4878565E-1,8E-1,1E0,-8.638382E-3,-7.190495E-2,-1.4752907E-1,3.686719E-2,6.464803E-2,2.1526794E-1],"split_indices":[4,0,11,10,0,17,2,2,0,0,0,0,0,0,0,2,2,0,0,0,0,0,0],"split_type":[0,0,0,0,0,0,0,0,0,0,0,0,0,0,0,0,0,0,0,0,0,0,0],"sum_hessian":[4.8E1,1E1,3.8E1,8E0,2E0,3.3E1,5E0,7E0,1E0,2.7E1,6E0,3E0,2E0,5E0,2E0,7E0,2E1,1E0,1E0,4E0,3E0,1.6E1,4E0],"tree_param":{"num_deleted":"0","num_feature":"21","num_nodes":"23","size_leaf_vector":"1"}},{"base_weights":[-4.2816047E-2,3.8727006E-1,-3.1896448E0,7.3559475E-1,-1.9413856E0,-3.742968E-1,-1.3886656E-1,1.0622394E0,-1.2379904E0,-2.1013883E-1,-5.7068635E-2,7.4853843E-1,2.1652947E-1,-1.4809003E-1,-5.01447E-1,4.4398084E-2,2.060707E-1,-6.70106E-2,-8.206463E-3],"categories":[],"categories_nodes":[],"categories_segments":[],"categories_sizes":[],"default_left":[0,0,0,0,0,0,0,0,0,0,0,0,0,0,0,0,0,0,0],"id":9,"left_children":[1,3,5,7,9,-1,-1,11,13,-1,-1,15,-1,-1,17,-1,-1,-1,-1],"loss_changes":[6.755221E1,3.7117718E1,7.8141403E-1,2.6456818E1,1.1665726E-1,0E0,0E0,1.0144199E1,3.3088875E-1,0E0,0E0,1.0274751E1,0E0,0E0,1.5720576E-1,0E0,0E0,0E0,0E0],"parents":[2147483647,0,0,1,1,2,2,3,3,4,4,7,7,8,8,11,11,14,14],"right_children":[2,4,6,8,10,-1,-1,12,14,-1,-1,16,-1,-1,18,-1,-1,-1,-1],"split_conditions":[1E0,1E0,8E-1,1E0,8E-1,-3.742968E-1,-1.3886656E-1,1E0,1E0,-2.1013883E-1,-5.7068635E-2,9.142857E-1,2.1652947E-1,-1.4809003E-1,3.7142858E-1,4.4398084E-2,2.060707E-1,-6.70106E-2,-8.206463E-3],"split_indices":[13,15,2,11,2,0,0,17,10,0,0,0,0,0,0,0,0,0,0],"split_type":[0,0,0,0,0,0,0,0,0,0,0,0,0,0,0,0,0,0,0],"sum_hessian":[4.8E1,4.3E1,5E0,3.8E1,5E0,3E0,2E0,3.3E1,5E0,4E0,1E0,2.7E1,6E0,3E0,2E0,2.3E1,4E0,1E0,1E0],"tree_param":{"num_deleted":"0","num_feature":"21","num_nodes":"19","size_leaf_vector":"1"}},{"base_weights":[-4.9486782E-2,3.48009E-1,-2.956208E0,6.682843E-1,-1.791782E0,-3.462246E-1,-1.296088E-1,9.697512E-1,-1.1514088E0,-1.9332775E-1,-5.421524E-2,1.2024544E0,-9.959793E-2,-1.383607E-1,-4.5800844E-1,1.451414E-1,-2.3304138E-2,8.055547E-2,-6.2276997E-2,-7.796097E-3,-6.090517E-2],"categories":[],"categories_nodes":[],"categories_segments":[],"categories_sizes":[],"default_left":[0,0,0,0,0,0,0,0,0,0,0,0,0,0,0,0,0,0,0,0,0],"id":10,"left_children":[1,3,5,7,9,-1,-1,11,13,-1,-1,15,17,-1,19,-1,-1,-1,-1,-1,-1],"loss_changes":[5.7643845E1,3.13516E1,5.531273E-1,2.251109E1,1.2769699E-2,0E0,0E0,8.58036E0,3.323331E-1,0E0,0E0,1.0344883E1,3.8165286E0,0E0,1.2472862E-1,0E0,0E0,0E0,0E0,0E0,0E0],"parents":[2147483647,0,0,1,1,2,2,3,3,4,4,7,7,8,8,11,11,12,12,14,14],"right_children":[2,4,6,8,10,-1,-1,12,14,-1,-1,16,18,-1,20,-1,-1,-1,-1,-1,-1],"split_conditions":[1E0,1E0,8E-1,1E0,8E-1,-3.462246E-1,-1.296088E-1,1E0,6E-1,-1.9332775E-1,-5.421524E-2,1E0,4.857143E-1,-1.383607E-1,4.2857143E-1,1.451414E-1,-2.3304138E-2,8.055547E-2,-6.2276997E-2,-7.796097E-3,-6.090517E-2],"split_indices":[13,15,2,11,2,0,0,18,2,0,0,19,0,0,0,0,0,0,0,0,0],"split_type":[0,0,0,0,0,0,0,0,0,0,0,0,0,0,0,0,0,0,0,0,0],"sum_hessian":[4.8E1,4.3E1,5E0,3.8E1,5E0,3E0,2E0,3.3E1,5E0,4E0,1E0,2.7E1,6E0,3E0,2E0,2.3E1,4E0,2E0,4E0,1E0,1E0],"tree_param":{"num_deleted":"0","num_feature":"21","num_nodes":"21","size_leaf_vector":"1"}},{"base_weights":[-6.066739E-2,3.060604E-1,-2.7398932E0,5.997392E-1,-1.6538617E-1,-2.9749674E-1,-7.822619E-2,8.76897E-1,-1.0707783E0,6.009808E-1,1.8552905E-1,-1.2854257E-1,-4.2765555E-1,2.8118199E-2,1.7267129E-1,-5.6742E-2,-7.40633E-3],"categories":[],"categories_nodes":[],"categories_segments":[],"categories_sizes":[],"default_left":[0,0,0,0,0,0,0,0,0,0,0,0,0,0,0,0,0],"id":11,"left_children":[1,3,5,7,-1,-1,-1,9,11,13,-1,-1,15,-1,-1,-1,-1],"loss_changes":[4.898335E1,2.6317736E1,4.3392563E-1,1.899584E1,0E0,0E0,0E0,8.063465E0,2.7854872E-1,9.594697E0,0E0,0E0,1.06233895E-1,0E0,0E0,0E0,0E0],"parents":[2147483647,0,0,1,1,2,2,3,3,7,7,8,8,9,9,12,12],"right_children":[2,4,6,8,-1,-1,-1,10,12,14,-1,-1,16,-1,-1,-1,-1],"split_conditions":[1E0,1E0,1E0,1E0,-1.6538617E-1,-2.9749674E-1,-7.822619E-2,1E0,1E0,1E0,1.8552905E-1,-1.2854257E-1,3.7142858E-1,2.8118199E-2,1.7267129E-1,-5.6742E-2,-7.40633E-3],"split_indices":[13,15,2,11,0,0,0,17,10,2,0,0,0,0,0,0,0],"split_type":[0,0,0,0,0,0,0,0,0,0,0,0,0,0,0,0,0],"sum_hessian":[4.8E1,4.3E1,5E0,3.8E1,5E0,4E0,1E0,3.3E1,5E0,2.7E1,6E0,3E0,2E0,2.2E1,5E0,1E0,1E0],"tree_param":{"num_deleted":"0","num_feature":"21","num_nodes":"17","size_leaf_vector":"1"}},{"base_weights":[-6.16921E-2,2.7609622E-1,-2.5285244E0,5.4473007E-1,-1.5160398E0,-2.9794556E-1,-1.08444154E-1,8.0056965E-1,-9.9581593E-1,-1.646307E-1,-4.323521E-2,5.4805404E-1,1.6962652E-1,-1.2013798E-1,-3.897921E-1,2.7932702E-2,1.728333E-1,-7.0360187E-3,-5.14328E-2],"categories":[],"categories_nodes":[],"categories_segments":[],"categories_sizes":[],"default_left":[0,0,0,0,0,0,0,0,0,0,0,0,0,0,0,0,0,0,0],"id":12,"left_children":[1,3,5,7,9,-1,-1,11,13,-1,-1,15,-1,-1,17,-1,-1,-1,-1],"loss_changes":[4.1528206E1,2.2008682E1,6.760483E-1,1.6168392E1,1.3523006E-1,0E0,0E0,6.760376E0,2.7917147E-1,0E0,0E0,8.398069E0,0E0,0E0,8.315399E-2,0E0,0E0,0E0,0E0],"parents":[2147483647,0,0,1,1,2,2,3,3,4,4,7,7,8,8,11,11,14,14],"right_children":[2,4,6,8,10,-1,-1,12,14,-1,-1,16,-1,-1,18,-1,-1,-1,-1],"split_conditions":[1E0,1E0,8E-1,1E0,8E-1,-2.9794556E-1,-1.08444154E-1,1E0,6E-1,-1.646307E-1,-4.323521E-2,9.142857E-1,1.6962652E-1,-1.2013798E-1,4.2857143E-1,2.7932702E-2,1.728333E-1,-7.0360187E-3,-5.14328E-2],"split_indices":[13,15,2,11,2,0,0,17,2,0,0,0,0,0,0,0,0,0,0],"split_type":[0,0,0,0,0,0,0,0,0,0,0,0,0,0,0,0,0,0,0],"sum_hessian":[4.8E1,4.3E1,5E0,3.8E1,5E0,3E0,2E0,3.3E1,5E0,4E0,1E0,2.7E1,6E0,3E0,2E0,2.3E1,4E0,1E0,1E0],"tree_param":{"num_deleted":"0","num_feature":"21","num_nodes":"19","size_leaf_vector":"1"}},{"base_weights":[-6.41448E-2,2.4812108E-1,-2.3434038E0,4.9517456E-1,-1.3990799E0,-3.0053303E-1,-1.2611079E-1,7.3140645E-1,-9.2600185E-1,-1.5146023E0,-4.107342E-2,4.825991E-1,1.6221492E-1,-1.11609176E-1,-3.6388144E-1,-1.6708355E-1,-4.448347E-2,1.4796102E-2,1.3006993E-1,-4.7898006E-2,-6.684208E-3],"categories":[],"categories_nodes":[],"categories_segments":[],"categories_sizes":[],"default_left":[0,0,0,0,0,0,0,0,0,0,0,0,0,0,0,0,0,0,0,0,0],"id":13,"left_children":[1,3,5,7,9,-1,-1,11,13,15,-1,17,-1,-1,19,-1,-1,-1,-1,-1,-1],"loss_changes":[3.5456455E1,1.8598446E1,5.08358E-1,1.3770643E1,6.295681E-2,0E0,0E0,6.752344E0,2.3499537E-1,9.242058E-2,0E0,7.4730363E0,0E0,0E0,7.055044E-2,0E0,0E0,0E0,0E0,0E0,0E0],"parents":[2147483647,0,0,1,1,2,2,3,3,4,4,7,7,8,8,9,9,11,11,14,14],"right_children":[2,4,6,8,10,-1,-1,12,14,16,-1,18,-1,-1,20,-1,-1,-1,-1,-1,-1],"split_conditions":[1E0,1E0,6E-1,1E0,8E-1,-3.0053303E-1,-1.2611079E-1,1E0,1E0,1E0,-4.107342E-2,8E-1,1.6221492E-1,-1.11609176E-1,3.7142858E-1,-1.6708355E-1,-4.448347E-2,1.4796102E-2,1.3006993E-1,-4.7898006E-2,-6.684208E-3],"split_indices":[13,15,2,11,2,0,0,2,10,10,0,4,0,0,0,0,0,0,0,0,0],"split_type":[0,0,0,0,0,0,0,0,0,0,0,0,0,0,0,0,0,0,0,0,0],"sum_hessian":[4.8E1,4.3E1,5E0,3.8E1,5E0,2E0,3E0,3.3E1,5E0,4E0,1E0,2.7E1,6E0,3E0,2E0,3E0,1E0,2E1,7E0,1E0,1E0],"tree_param":{"num_deleted":"0","num_feature":"21","num_nodes":"21","size_leaf_vector":"1"}},{"base_weights":[-6.871764E-2,2.2076958E-1,-2.180171E0,4.492701E-1,-1.3012787E0,-2.5742027E-1,-9.2807196E-2,6.672982E-1,-8.6110085E-1,-1.4054554E0,-3.9019775E-2,4.351252E-1,1.5006618E-1,-1.04349755E-1,-3.3087158E-1,-1.5455227E-1,-4.2259313E-2,1.6444422E-2,1.4002149E-1,-6.3500404E-3,-4.32807E-2],"categories":[],"categories_nodes":[],"categories_segments":[],"categories_sizes":[],"default_left":[0,0,0,0,0,0,0,0,0,0,0,0,0,0,0,0,0,0,0,0,0],"id":14,"left_children":[1,3,5,7,9,-1,-1,11,13,15,-1,17,-1,-1,19,-1,-1,-1,-1,-1,-1],"loss_changes":[3.0432016E1,1.5887335E1,5.7115173E-1,1.1716821E1,2.1073341E-2,0E0,0E0,5.925498E0,2.3500872E-1,3.520775E-2,0E0,7.084223E0,0E0,0E0,5.428034E-2,0E0,0E0,0E0,0E0,0E0,0E0],"parents":[2147483647,0,0,1,1,2,2,3,3,4,4,7,7,8,8,9,9,11,11,14,14],"right_children":[2,4,6,8,10,-1,-1,12,14,16,-1,18,-1,-1,20,-1,-1,-1,-1,-1,-1],"split_conditions":[1E0,1E0,8E-1,1E0,8E-1,-2.5742027E-1,-9.2807196E-2,1E0,6E-1,1E0,-3.9019775E-2,1E0,1.5006618E-1,-1.04349755E-1,4.2857143E-1,-1.5455227E-1,-4.2259313E-2,1.6444422E-2,1.4002149E-1,-6.3500404E-3,-4.32807E-2],"split_indices":[13,15,2,11,2,0,0,17,2,10,0,2,0,0,0,0,0,0,0,0,0],"split_type":[0,0,0,0,0,0,0,0,0,0,0,0,0,0,0,0,0,0,0,0,0],"sum_hessian":[4.8E1,4.3E1,5E0,3.8E1,5E0,3E0,2E0,3.3E1,5E0,4E0,1E0,2.7E1,6E0,3E0,2E0,3E0,1E0,2.2E1,5E0,1E0,1E0],"tree_param":{"num_deleted":"0","num_feature":"21","num_nodes":"21","size_leaf_vector":"1"}},{"base_weights":[-7.0693426E-2,1.9679941E-1,-2.0205252E0,4.082541E-1,-1.2104559E-1,-2.6333618E-1,-1.0557666E-1,6.095834E-1,-8.006544E-1,7.9551154E-1,-2.2121239E-1,-9.693904E-2,-3.087883E-1,9.921148E-2,-3.0728644E-2,5.551408E-2,-6.4278185E-2,-4.0285684E-2,-6.0325623E-3],"categories":[],"categories_nodes":[],"categories_segments":[],"categories_sizes":[],"default_left":[0,0,0,0,0,0,0,0,0,0,0,0,0,0,0,0,0,0,0],"id":15,"left_children":[1,3,5,7,-1,-1,-1,9,11,13,15,-1,17,-1,-1,-1,-1,-1,-1],"loss_changes":[2.5954374E1,1.3587284E1,7.6722145E-1,9.9802265E0,0E0,0E0,0E0,5.4278994E0,1.9863653E-1,6.3756447E0,2.6478417E0,0E0,4.581496E-2,0E0,0E0,0E0,0E0,0E0,0E0],"parents":[2147483647,0,0,1,1,2,2,3,3,7,7,8,8,9,9,10,10,12,12],"right_children":[2,4,6,8,-1,-1,-1,10,12,14,16,-1,18,-1,-1,-1,-1,-1,-1],"split_conditions":[1E0,1E0,6E-1,1E0,-1.2104559E-1,-2.6333618E-1,-1.0557666E-1,1E0,1E0,1E0,4.857143E-1,-9.693904E-2,3.7142858E-1,9.921148E-2,-3.0728644E-2,5.551408E-2,-6.4278185E-2,-4.0285684E-2,-6.0325623E-3],"split_indices":[13,15,2,11,0,0,0,18,10,19,0,0,0,0,0,0,0,0,0],"split_type":[0,0,0,0,0,0,0,0,0,0,0,0,0,0,0,0,0,0,0],"sum_hessian":[4.8E1,4.3E1,5E0,3.8E1,5E0,2E0,3E0,3.3E1,5E0,2.7E1,6E0,3E0,2E0,2.3E1,4E0,2E0,4E0,1E0,1E0],"tree_param":{"num_deleted":"0","num_feature":"21","num_nodes":"19","size_leaf_vector":"1"}},{"base_weights":[-7.532762E-2,1.7247032E-1,-1.8799578E0,3.6528715E-1,-1.1095842E0,-2.4578045E-1,-9.765835E-2,5.503821E-1,-7.444652E-1,-1.2074353E0,-3.1016445E-2,2.7829632E-1,1.0939889E0,-9.066949E-2,-2.8000388E-1,-1.3388239E-1,-3.4094047E-2,3.4864699E-3,1.4867382E-1,1.3460991E-1,-2.7004243E-3,-5.7309153E-3,-3.6269665E-2],"categories":[],"categories_nodes":[],"categories_segments":[],"categories_sizes":[],"default_left":[0,0,0,0,0,0,0,0,0,0,0,0,0,0,0,0,0,0,0,0,0,0,0],"id":16,"left_children":[1,3,5,7,9,-1,-1,11,13,15,-1,17,19,-1,21,-1,-1,-1,-1,-1,-1,-1,-1],"loss_changes":[2.2236235E1,1.128219E1,7.3182106E-1,8.4207115E0,9.484053E-2,0E0,0E0,4.724408E0,1.9821858E-1,1.1277866E-1,0E0,7.008316E0,3.1451006E0,0E0,3.445989E-2,0E0,0E0,0E0,0E0,0E0,0E0,0E0,0E0],"parents":[2147483647,0,0,1,1,2,2,3,3,4,4,7,7,8,8,9,9,11,11,12,12,14,14],"right_children":[2,4,6,8,10,-1,-1,12,14,16,-1,18,20,-1,22,-1,-1,-1,-1,-1,-1,-1,-1],"split_conditions":[1E0,1E0,6E-1,1E0,8E-1,-2.4578045E-1,-9.765835E-2,8E-1,6E-1,1E0,-3.1016445E-2,9.142857E-1,8E-1,-9.066949E-2,4.2857143E-1,-1.3388239E-1,-3.4094047E-2,3.4864699E-3,1.4867382E-1,1.3460991E-1,-2.7004243E-3,-5.7309153E-3,-3.6269665E-2],"split_indices":[13,15,2,11,2,0,0,2,2,10,0,0,0,0,0,0,0,0,0,0,0,0,0],"split_type":[0,0,0,0,0,0,0,0,0,0,0,0,0,0,0,0,0,0,0,0,0,0,0],"sum_hessian":[4.8E1,4.3E1,5E0,3.8E1,5E0,2E0,3E0,3.3E1,5E0,4E0,1E0,2.3E1,1E1,3E0,2E0,3E0,1E0,2E1,3E0,8E0,2E0,1E0,1E0],"tree_param":{"num_deleted":"0","num_feature":"21","num_nodes":"23","size_leaf_vector":"1"}},{"base_weights":[-7.577499E-2,1.5414172E-1,-1.7492018E0,-5.1146556E-2,1.2465437E-1,-2.2939503E-1,-9.033399E-2,-8.3846027E-1,4.4305563E-1,-1.1060642E0,1.7396641E-1,2.132473E-1,1.2736778E0,-6.0292598E-2,-1.5087147E-1,-2.946558E-2,4.283924E-2,-5.2698026E-3,1.2902032E-1,3.448118E-2,1.7779846E-1],"categories":[],"categories_nodes":[],"categories_segments":[],"categories_sizes":[],"default_left":[0,0,0,0,0,0,0,0,0,0,0,0,0,0,0,0,0,0,0,0,0],"id":17,"left_children":[1,3,5,7,-1,-1,-1,9,11,13,15,17,19,-1,-1,-1,-1,-1,-1,-1,-1],"loss_changes":[1.9122314E1,9.931079E0,6.924763E-1,1.5156988E1,0E0,0E0,0E0,4.256357E0,4.309606E0,1.5214224E0,6.0314703E-1,5.796218E0,1.7290964E0,0E0,0E0,0E0,0E0,0E0,0E0,0E0,0E0],"parents":[2147483647,0,0,1,1,2,2,3,3,7,7,8,8,9,9,10,10,11,11,12,12],"right_children":[2,4,6,8,-1,-1,-1,10,12,14,16,18,20,-1,-1,-1,-1,-1,-1,-1,-1],"split_conditions":[1E0,1E0,6E-1,5.4285717E-1,1.2465437E-1,-2.2939503E-1,-9.033399E-2,8E-1,9.142857E-1,4.2857143E-1,3.4285715E-1,1E0,3E0,-6.0292598E-2,-1.5087147E-1,-2.946558E-2,4.283924E-2,-5.2698026E-3,1.2902032E-1,3.448118E-2,1.7779846E-1],"split_indices":[13,17,2,0,0,0,0,2,0,0,0,2,5,0,0,0,0,0,0,0,0],"split_type":[0,0,0,0,0,0,0,0,0,0,0,0,0,0,0,0,0,0,0,0,0],"sum_hessian":[4.8E1,4.3E1,5E0,3.7E1,6E0,2E0,3E0,1.4E1,2.3E1,1.1E1,3E0,1.9E1,4E0,6E0,5E0,1E0,2E0,1.6E1,3E0,2E0,2E0],"tree_param":{"num_deleted":"0","num_feature":"21","num_nodes":"21","size_leaf_vector":"1"}},{"base_weights":[-6.935739E-2,1.4470243E-1,-1.6275698E0,3.1040666E-1,-9.564921E-1,-2.1410206E-1,-8.355894E-2,4.6828294E-1,-6.359599E-1,-1.0358212E0,-2.7992344E-2,2.837051E-1,1.13969676E-1,-7.881751E-2,-2.2101974E-1,-1.147903E-1,-2.9374694E-2,8.332976E-3,1.1887658E-1,-3.0723287E-2,-2.429676E-3],"categories":[],"categories_nodes":[],"categories_segments":[],"categories_sizes":[],"default_left":[0,0,0,0,0,0,0,0,0,0,0,0,0,0,0,0,0,0,0,0,0],"id":18,"left_children":[1,3,5,7,9,-1,-1,11,13,15,-1,17,-1,-1,19,-1,-1,-1,-1,-1,-1],"loss_changes":[1.6579496E1,8.325696E0,6.5084267E-1,6.124754E0,3.2078743E-2,0E0,0E0,3.8902173E0,2.0475888E-1,7.867193E-2,0E0,4.978791E0,0E0,0E0,4.3415546E-2,0E0,0E0,0E0,0E0,0E0,0E0],"parents":[2147483647,0,0,1,1,2,2,3,3,4,4,7,7,8,8,9,9,11,11,14,14],"right_children":[2,4,6,8,10,-1,-1,12,14,16,-1,18,-1,-1,20,-1,-1,-1,-1,-1,-1],"split_conditions":[1E0,1E0,6E-1,1E0,8E-1,-2.1410206E-1,-8.355894E-2,1E0,1E0,1E0,-2.7992344E-2,9.142857E-1,1.13969676E-1,-7.881751E-2,3.7142858E-1,-1.147903E-1,-2.9374694E-2,8.332976E-3,1.1887658E-1,-3.0723287E-2,-2.429676E-3],"split_indices":[13,15,2,11,2,0,0,17,10,10,0,0,0,0,0,0,0,0,0,0,0],"split_type":[0,0,0,0,0,0,0,0,0,0,0,0,0,0,0,0,0,0,0,0,0],"sum_hessian":[4.8E1,4.3E1,5E0,3.8E1,5E0,2E0,3E0,3.3E1,5E0,4E0,1E0,2.7E1,6E0,3E0,2E0,3E0,1E0,2.3E1,4E0,1E0,1E0],"tree_param":{"num_deleted":"0","num_feature":"21","num_nodes":"21","size_leaf_vector":"1"}},{"base_weights":[-6.937307E-2,1.2925586E-1,-1.514423E0,-4.6505075E-2,1.0649215E0,-1.998286E-1,-7.729202E-2,-2.3343311E-1,9.8935E-2,1.1368014E-1,3.168211E-2,-4.7297627E-1,9.233405E-1,-8.2855605E-2,-1.0957005E-2,4.3394852E-2,1.6851501E-1],"categories":[],"categories_nodes":[],"categories_segments":[],"categories_sizes":[],"default_left":[0,0,0,0,0,0,0,0,0,0,0,0,0,0,0,0,0],"id":19,"left_children":[1,3,5,7,9,-1,-1,11,-1,-1,-1,13,15,-1,-1,-1,-1],"loss_changes":[1.4260156E1,7.2854767E0,6.081991E-1,7.588901E0,1.6251087E-2,0E0,0E0,9.580926E0,0E0,0E0,0E0,3.5273724E0,1.5056725E0,0E0,0E0,0E0,0E0],"parents":[2147483647,0,0,1,1,2,2,3,3,4,4,7,7,11,11,12,12],"right_children":[2,4,6,8,10,-1,-1,12,-1,-1,-1,14,16,-1,-1,-1,-1],"split_conditions":[1E0,1E0,6E-1,1E0,1E0,-1.998286E-1,-7.729202E-2,8.5714287E-1,9.8935E-2,1.1368014E-1,3.168211E-2,5.4285717E-1,1E0,-8.2855605E-2,-1.0957005E-2,4.3394852E-2,1.6851501E-1],"split_indices":[13,2,2,17,18,0,0,0,0,0,0,0,8,0,0,0,0],"split_type":[0,0,0,0,0,0,0,0,0,0,0,0,0,0,0,0,0],"sum_hessian":[4.8E1,4.3E1,5E0,3.7E1,6E0,2E0,3E0,3.2E1,5E0,5E0,1E0,2.7E1,5E0,1.3E1,1.4E1,4E0,1E0],"tree_param":{"num_deleted":"0","num_feature":"21","num_nodes":"17","size_leaf_vector":"1"}},{"base_weights":[-6.069522E-2,1.24566816E-1,-1.4091676E0,2.6676613E-1,-8.204899E-1,-1.8650666E-1,-7.149515E-2,4.0022513E-1,-5.3396255E-1,-8.9478797E-1,-2.244997E-2,1.829431E-1,8.379109E-1,-6.848951E-2,-1.5473175E-1,-9.9966906E-2,-2.376318E-2,-5.15629E-4,1.12472914E-1,1.0613084E-1,-1.1158499E-2,-2.5044346E-2,1.8345834E-3],"categories":[],"categories_nodes":[],"categories_segments":[],"categories_sizes":[],"default_left":[0,0,0,0,0,0,0,0,0,0,0,0,0,0,0,0,0,0,0,0,0,0,0],"id":20,"left_children":[1,3,5,7,9,-1,-1,11,13,15,-1,17,19,-1,21,-1,-1,-1,-1,-1,-1,-1,-1],"loss_changes":[1.2416752E1,6.131881E0,5.655222E-1,4.3814187E0,6.4805984E-2,0E0,0E0,3.0801535E0,2.3745441E-1,1.0706329E-1,0E0,4.257385E0,2.4516902E0,0E0,5.429125E-2,0E0,0E0,0E0,0E0,0E0,0E0,0E0,0E0],"parents":[2147483647,0,0,1,1,2,2,3,3,4,4,7,7,8,8,9,9,11,11,12,12,14,14],"right_children":[2,4,6,8,10,-1,-1,12,14,16,-1,18,20,-1,22,-1,-1,-1,-1,-1,-1,-1,-1],"split_conditions":[1E0,1E0,6E-1,1E0,8E-1,-1.8650666E-1,-7.149515E-2,8E-1,1E0,1E0,-2.244997E-2,9.142857E-1,8E-1,-6.848951E-2,3.7142858E-1,-9.9966906E-2,-2.376318E-2,-5.15629E-4,1.12472914E-1,1.0613084E-1,-1.1158499E-2,-2.5044346E-2,1.8345834E-3],"split_indices":[13,15,2,11,2,0,0,2,10,10,0,0,0,0,0,0,0,0,0,0,0,0,0],"split_type":[0,0,0,0,0,0,0,0,0,0,0,0,0,0,0,0,0,0,0,0,0,0,0],"sum_hessian":[4.8E1,4.3E1,5E0,3.8E1,5E0,2E0,3E0,3.3E1,5E0,4E0,1E0,2.3E1,1E1,3E0,2E0,3E0,1E0,2E1,3E0,8E0,2E0,1E0,1E0],"tree_param":{"num_deleted":"0","num_feature":"21","num_nodes":"23","size_leaf_vector":"1"}},{"base_weights":[-6.0523015E-2,1.1140637E-1,-1.3112513E0,-4.14112E-2,9.2507225E-1,-1.740729E-1,-6.613302E-2,-6.4167506E-1,3.3547917E-1,9.895709E-2,2.6904011E-2,-8.5169333E-1,1.4879847E-1,-1.18873216E-1,6.160155E-1,-4.1397806E-2,-1.22041225E-1,-2.1327496E-2,3.4058128E-2,-4.06277E-2,4.1380167E-2,8.684464E-2,-2.9528094E-2],"categories":[],"categories_nodes":[],"categories_segments":[],"categories_sizes":[],"default_left":[0,0,0,0,0,0,0,0,0,0,0,0,0,0,0,0,0,0,0,0,0,0,0],"id":21,"left_children":[1,3,5,7,9,-1,-1,11,13,-1,-1,15,17,19,21,-1,-1,-1,-1,-1,-1,-1,-1],"loss_changes":[1.0682892E1,5.5093756E0,5.235634E-1,8.812148E0,2.9958248E-2,0E0,0E0,2.616938E0,3.1323237E0,0E0,0E0,1.4315042E0,3.5039526E-1,1.6990458E0,3.7070265E0,0E0,0E0,0E0,0E0,0E0,0E0,0E0,0E0],"parents":[2147483647,0,0,1,1,2,2,3,3,4,4,7,7,8,8,11,11,12,12,13,13,14,14],"right_children":[2,4,6,8,10,-1,-1,12,14,-1,-1,16,18,20,22,-1,-1,-1,-1,-1,-1,-1,-1],"split_conditions":[1E0,1E0,6E-1,5.4285717E-1,5.4285717E-1,-1.740729E-1,-6.613302E-2,8E-1,4E-1,9.895709E-2,2.6904011E-2,4.2857143E-1,3.4285715E-1,8.5714287E-1,6E0,-4.1397806E-2,-1.22041225E-1,-2.1327496E-2,3.4058128E-2,-4.06277E-2,4.1380167E-2,8.684464E-2,-2.9528094E-2],"split_indices":[13,17,2,0,0,0,0,2,2,0,0,0,0,0,5,0,0,0,0,0,0,0,0],"split_type":[0,0,0,0,0,0,0,0,0,0,0,0,0,0,0,0,0,0,0,0,0,0,0],"sum_hessian":[4.8E1,4.3E1,5E0,3.7E1,6E0,2E0,3E0,1.4E1,2.3E1,5E0,1E0,1.1E1,3E0,9E0,1.4E1,6E0,5E0,1E0,2E0,6E0,3E0,1.1E1,3E0],"tree_param":{"num_deleted":"0","num_feature":"21","num_nodes":"23","size_leaf_vector":"1"}},{"base_weights":[-5.8694955E-2,1.0102069E-1,-1.2201605E0,-3.970809E-2,8.5054535E-1,-1.6246809E-1,-6.117301E-2,-5.875548E-1,3.043506E-1,9.071067E-2,2.5558854E-2,-7.8014404E-1,1.3710165E-1,-1.0691013E-1,5.582344E-1,-3.7849482E-2,-1.11871086E-1,-2.0261098E-2,3.178762E-2,-4.3916546E-2,3.1317826E-2,7.888381E-2,-2.731352E-2],"categories":[],"categories_nodes":[],"categories_segments":[],"categories_sizes":[],"default_left":[0,0,0,0,0,0,0,0,0,0,0,0,0,0,0,0,0,0,0,0,0,0,0],"id":22,"left_children":[1,3,5,7,9,-1,-1,11,13,-1,-1,15,17,19,21,-1,-1,-1,-1,-1,-1,-1,-1],"loss_changes":[9.212968E0,4.6748796E0,4.8286915E-1,7.3414965E0,3.7150383E-3,0E0,0E0,2.200375E0,2.5655794E0,0E0,0E0,1.2083945E0,3.1005076E-1,1.5333029E0,3.0912127E0,0E0,0E0,0E0,0E0,0E0,0E0,0E0,0E0],"parents":[2147483647,0,0,1,1,2,2,3,3,4,4,7,7,8,8,11,11,12,12,13,13,14,14],"right_children":[2,4,6,8,10,-1,-1,12,14,-1,-1,16,18,20,22,-1,-1,-1,-1,-1,-1,-1,-1],"split_conditions":[1E0,1E0,6E-1,5.4285717E-1,5.4285717E-1,-1.6246809E-1,-6.117301E-2,8E-1,4E-1,9.071067E-2,2.5558854E-2,4.2857143E-1,3.4285715E-1,1E0,6E0,-3.7849482E-2,-1.11871086E-1,-2.0261098E-2,3.178762E-2,-4.3916546E-2,3.1317826E-2,7.888381E-2,-2.731352E-2],"split_indices":[13,17,2,0,0,0,0,2,2,0,0,0,0,9,5,0,0,0,0,0,0,0,0],"split_type":[0,0,0,0,0,0,0,0,0,0,0,0,0,0,0,0,0,0,0,0,0,0,0],"sum_hessian":[4.8E1,4.3E1,5E0,3.7E1,6E0,2E0,3E0,1.4E1,2.3E1,5E0,1E0,1.1E1,3E0,9E0,1.4E1,6E0,5E0,1E0,2E0,5E0,4E0,1.1E1,3E0],"tree_param":{"num_deleted":"0","num_feature":"21","num_nodes":"23","size_leaf_vector":"1"}},{"base_weights":[-5.704187E-2,9.130586E-2,-1.1354183E0,-3.83485E-2,7.821002E-2,-1.5163688E-1,-5.6585073E-2,-5.380121E-1,2.7553907E-1,-7.146061E-1,1.2627316E-1,7.136112E-2,7.612054E-1,-3.4605246E-2,-1.0254844E-1,-1.9248009E-2,2.9668426E-2,-1.5384204E-2,8.980327E-2,4.0080898E-2,1.461792E-1],"categories":[],"categories_nodes":[],"categories_segments":[],"categories_sizes":[],"default_left":[0,0,0,0,0,0,0,0,0,0,0,0,0,0,0,0,0,0,0,0,0],"id":23,"left_children":[1,3,5,7,-1,-1,-1,9,11,13,15,17,19,-1,-1,-1,-1,-1,-1,-1,-1],"loss_changes":[7.942431E0,3.97083E0,4.4382334E-1,6.108095E0,0E0,0E0,0E0,1.8498678E0,2.3255758E0,1.0200324E0,2.7438217E-1,3.4891977E0,1.1815228E0,0E0,0E0,0E0,0E0,0E0,0E0,0E0,0E0],"parents":[2147483647,0,0,1,1,2,2,3,3,7,7,8,8,9,9,10,10,11,11,12,12],"right_children":[2,4,6,8,-1,-1,-1,10,12,14,16,18,20,-1,-1,-1,-1,-1,-1,-1,-1],"split_conditions":[1E0,1E0,6E-1,5.4285717E-1,7.821002E-2,-1.5163688E-1,-5.6585073E-2,8E-1,8E-1,4.2857143E-1,3.4285715E-1,1E0,1E0,-3.4605246E-2,-1.0254844E-1,-1.9248009E-2,2.9668426E-2,-1.5384204E-2,8.980327E-2,4.0080898E-2,1.461792E-1],"split_indices":[13,17,2,0,0,0,0,2,4,0,0,2,8,0,0,0,0,0,0,0,0],"split_type":[0,0,0,0,0,0,0,0,0,0,0,0,0,0,0,0,0,0,0,0,0],"sum_hessian":[4.8E1,4.3E1,5E0,3.7E1,6E0,2E0,3E0,1.4E1,2.3E1,1.1E1,3E0,1.7E1,6E0,6E0,5E0,1E0,2E0,1.4E1,3E0,5E0,1E0],"tree_param":{"num_deleted":"0","num_feature":"21","num_nodes":"21","size_leaf_vector":"1"}},{"base_weights":[-5.1257424E-2,8.699699E-2,-1.0565802E0,-3.0988643E-2,7.1506226E-1,-1.2901235E-1,-3.9299585E-2,-4.9265975E-1,2.58847E-1,7.66338E-2,2.0370388E-2,-6.5457505E-1,1.1625099E-1,6.8359695E-2,7.1169335E-1,-3.16391E-2,-9.400272E-2,-1.8285561E-2,2.7690506E-2,-1.3948301E-2,8.306799E-2,3.6740813E-2,1.3887024E-1],"categories":[],"categories_nodes":[],"categories_segments":[],"categories_sizes":[],"default_left":[0,0,0,0,0,0,0,0,0,0,0,0,0,0,0,0,0,0,0,0,0,0,0],"id":24,"left_children":[1,3,5,7,9,-1,-1,11,13,-1,-1,15,17,19,21,-1,-1,-1,-1,-1,-1,-1,-1],"loss_changes":[6.9024444E0,3.2826767E0,4.2284155E-1,5.2122555E0,2.7436018E-2,0E0,0E0,1.5549741E0,2.0216246E0,0E0,0E0,8.6100817E-1,2.428444E-1,2.9678342E0,1.1213691E0,0E0,0E0,0E0,0E0,0E0,0E0,0E0,0E0],"parents":[2147483647,0,0,1,1,2,2,3,3,4,4,7,7,8,8,11,11,12,12,13,13,14,14],"right_children":[2,4,6,8,10,-1,-1,12,14,-1,-1,16,18,20,22,-1,-1,-1,-1,-1,-1,-1,-1],"split_conditions":[1E0,1E0,8E-1,5.4285717E-1,5.4285717E-1,-1.2901235E-1,-3.9299585E-2,8E-1,8E-1,7.66338E-2,2.0370388E-2,4.2857143E-1,3.4285715E-1,1E0,1E0,-3.16391E-2,-9.400272E-2,-1.8285561E-2,2.7690506E-2,-1.3948301E-2,8.306799E-2,3.6740813E-2,1.3887024E-1],"split_indices":[13,17,2,0,0,0,0,2,4,0,0,0,0,2,8,0,0,0,0,0,0,0,0],"split_type":[0,0,0,0,0,0,0,0,0,0,0,0,0,0,0,0,0,0,0,0,0,0,0],"sum_hessian":[4.8E1,4.3E1,5E0,3.7E1,6E0,3E0,2E0,1.4E1,2.3E1,5E0,1E0,1.1E1,3E0,1.7E1,6E0,6E0,5E0,1E0,2E0,1.4E1,3E0,5E0,1E0],"tree_param":{"num_deleted":"0","num_feature":"21","num_nodes":"23","size_leaf_vector":"1"}},{"base_weights":[-4.4964578E-2,8.342227E-2,-9.7897404E-1,1.7990695E-1,-5.576318E-1,-1.3292694E-1,-4.71509E-2,9.029803E-2,7.7118796E-1,-6.079563E-1,-1.5300465E-2,-4.970577E-2,6.57414E-1,5.083084E-2,1.23448245E-1,-6.73089E-2,-1.7371273E-2,-1.9550415E-2,6.892273E-2,3.9354783E-2,8.78053E-2,1.8451309E-2,-1.0826684E-2],"categories":[],"categories_nodes":[],"categories_segments":[],"categories_sizes":[],"default_left":[0,0,0,0,0,0,0,0,0,0,0,0,0,0,0,0,0,0,0,0,0,0,0],"id":25,"left_children":[1,3,5,7,9,-1,-1,11,13,15,-1,17,19,21,-1,-1,-1,-1,-1,-1,-1,-1,-1],"loss_changes":[5.9574804E0,2.821805E0,4.3981314E-1,1.996741E0,2.9155731E-2,0E0,0E0,2.8116212E0,1.605938E0,2.4493217E-2,0E0,3.2590687E0,6.197834E-2,8.3782256E-2,0E0,0E0,0E0,0E0,0E0,0E0,0E0,0E0,0E0],"parents":[2147483647,0,0,1,1,2,2,3,3,4,4,7,7,8,8,9,9,11,11,12,12,13,13],"right_children":[2,4,6,8,10,-1,-1,12,14,16,-1,18,20,22,-1,-1,-1,-1,-1,-1,-1,-1,-1],"split_conditions":[1E0,1E0,6E-1,9.142857E-1,1E0,-1.3292694E-1,-4.71509E-2,1E0,3E0,8E-1,-1.5300465E-2,1E0,8E-1,1E0,1.23448245E-1,-6.73089E-2,-1.7371273E-2,-1.9550415E-2,6.892273E-2,3.9354783E-2,8.78053E-2,1.8451309E-2,-1.0826684E-2],"split_indices":[13,15,2,0,10,0,0,17,5,2,0,2,2,0,0,0,0,0,0,0,0,0,0],"split_type":[0,0,0,0,0,0,0,0,0,0,0,0,0,0,0,0,0,0,0,0,0,0,0],"sum_hessian":[4.8E1,4.3E1,5E0,3.8E1,5E0,2E0,3E0,3.4E1,4E0,4E0,1E0,2.8E1,6E0,2E0,2E0,3E0,1E0,2.4E1,4E0,4E0,2E0,1E0,1E0],"tree_param":{"num_deleted":"0","num_feature":"21","num_nodes":"23","size_leaf_vector":"1"}},{"base_weights":[-3.990582E-2,7.979887E-2,-9.1108924E-1,1.6980366E-1,-5.185321E-1,-1.2406515E-1,-4.3614533E-2,8.63121E-2,7.2028387E-1,-5.640968E-1,-1.4535427E-2,-4.303268E-2,6.098388E-1,4.8288982E-2,1.15218416E-1,-6.2260773E-2,-1.6502667E-2,-1.7673584E-2,6.340896E-2,3.6206435E-2,8.195165E-2,1.7528726E-2,-1.02853775E-2],"categories":[],"categories_nodes":[],"categories_segments":[],"categories_sizes":[],"default_left":[0,0,0,0,0,0,0,0,0,0,0,0,0,0,0,0,0,0,0,0,0,0,0],"id":26,"left_children":[1,3,5,7,9,-1,-1,11,13,15,-1,17,19,21,-1,-1,-1,-1,-1,-1,-1,-1,-1],"loss_changes":[5.1826563E0,2.4575658E0,3.9803743E-1,1.7302885E0,2.002871E-2,0E0,0E0,2.3962836E0,1.395536E0,1.40028E-2,0E0,2.7375348E0,6.695151E-2,7.561356E-2,0E0,0E0,0E0,0E0,0E0,0E0,0E0,0E0,0E0],"parents":[2147483647,0,0,1,1,2,2,3,3,4,4,7,7,8,8,9,9,11,11,12,12,13,13],"right_children":[2,4,6,8,10,-1,-1,12,14,16,-1,18,20,22,-1,-1,-1,-1,-1,-1,-1,-1,-1],"split_conditions":[1E0,1E0,6E-1,9.142857E-1,1E0,-1.2406515E-1,-4.3614533E-2,1E0,3E0,8E-1,-1.4535427E-2,1E0,8E-1,1E0,1.15218416E-1,-6.2260773E-2,-1.6502667E-2,-1.7673584E-2,6.340896E-2,3.6206435E-2,8.195165E-2,1.7528726E-2,-1.02853775E-2],"split_indices":[13,15,2,0,10,0,0,17,5,2,0,2,2,0,0,0,0,0,0,0,0,0,0],"split_type":[0,0,0,0,0,0,0,0,0,0,0,0,0,0,0,0,0,0,0,0,0,0,0],"sum_hessian":[4.8E1,4.3E1,5E0,3.8E1,5E0,2E0,3E0,3.4E1,4E0,4E0,1E0,2.8E1,6E0,2E0,2E0,3E0,1E0,2.4E1,4E0,4E0,2E0,1E0,1E0],"tree_param":{"num_deleted":"0","num_feature":"21","num_nodes":"23","size_leaf_vector":"1"}},{"base_weights":[-3.5397433E-2,7.620647E-2,-8.4792644E-1,1.6016549E-1,-4.8222828E-1,-1.1579412E-1,-4.034338E-2,8.2363345E-2,6.7274743E-1,-5.234394E-1,-1.3808632E-2,-7.830971E-2,4.400418E-1,4.587428E-2,1.0753714E-1,-5.759115E-2,-1.5677547E-2,5.6343842E-2,-1.5861122E-2,5.641079E-2,-4.0030956E-2,1.66523E-2,-9.771156E-3],"categories":[],"categories_nodes":[],"categories_segments":[],"categories_sizes":[],"default_left":[0,0,0,0,0,0,0,0,0,0,0,0,0,0,0,0,0,0,0,0,0,0,0],"id":27,"left_children":[1,3,5,7,9,-1,-1,11,13,15,-1,17,19,21,-1,-1,-1,-1,-1,-1,-1,-1,-1],"loss_changes":[4.508006E0,2.1402042E0,3.5964298E-1,1.4999093E0,1.2815118E-2,0E0,0E0,2.0458846E0,1.2126386E0,5.9093237E-3,0E0,1.377701E0,1.372668E0,6.824156E-2,0E0,0E0,0E0,0E0,0E0,0E0,0E0,0E0,0E0],"parents":[2147483647,0,0,1,1,2,2,3,3,4,4,7,7,8,8,9,9,11,11,12,12,13,13],"right_children":[2,4,6,8,10,-1,-1,12,14,16,-1,18,20,22,-1,-1,-1,-1,-1,-1,-1,-1,-1],"split_conditions":[1E0,1E0,6E-1,9.142857E-1,1E0,-1.1579412E-1,-4.034338E-2,8E-1,3E0,8E-1,-1.3808632E-2,4E-1,8E-1,1E0,1.0753714E-1,-5.759115E-2,-1.5677547E-2,5.6343842E-2,-1.5861122E-2,5.641079E-2,-4.0030956E-2,1.66523E-2,-9.771156E-3],"split_indices":[13,15,2,0,10,0,0,2,5,2,0,4,0,0,0,0,0,0,0,0,0,0,0],"split_type":[0,0,0,0,0,0,0,0,0,0,0,0,0,0,0,0,0,0,0,0,0,0,0],"sum_hessian":[4.8E1,4.3E1,5E0,3.8E1,5E0,2E0,3E0,3.4E1,4E0,4E0,1E0,2.4E1,1E1,2E0,2E0,3E0,1E0,2E0,2.2E1,9E0,1E0,1E0,1E0],"tree_param":{"num_deleted":"0","num_feature":"21","num_nodes":"23","size_leaf_vector":"1"}},{"base_weights":[-3.332566E-2,7.049959E-2,-7.891566E-1,-2.1283701E-2,5.586804E-1,-1.0807457E-1,-3.7317563E-2,-3.9658636E-1,2.1416728E-1,7.33778E-2,3.4188575E-1,-5.181937E-1,6.7382336E-2,-9.390335E-2,4.052699E-1,2.3767948E-2,8.0717854E-2,-2.2596495E-2,-7.727616E-2,-1.4893628E-2,1.8913396E-2,6.748136E-3,-7.731829E-2,5.802309E-2,-2.2093058E-2,-4.3306638E-2,3.2040153E-2],"categories":[],"categories_nodes":[],"categories_segments":[],"categories_sizes":[],"default_left":[0,0,0,0,0,0,0,0,0,0,0,0,0,0,0,0,0,0,0,0,0,0,0,0,0,0,0],"id":28,"left_children":[1,3,5,7,9,-1,-1,11,13,-1,15,17,19,21,23,25,-1,-1,-1,-1,-1,-1,-1,-1,-1,-1,-1],"loss_changes":[3.900878E0,1.9833918E0,3.2446504E-1,3.44282E0,1.48534775E-2,0E0,0E0,8.812473E-1,1.4510105E0,0E0,7.2090447E-1,7.1808815E-1,1.3351747E-1,1.1484287E0,1.7716007E0,6.8080467E-1,0E0,0E0,0E0,0E0,0E0,0E0,0E0,0E0,0E0,0E0,0E0],"parents":[2147483647,0,0,1,1,2,2,3,3,4,4,7,7,8,8,10,10,11,11,12,12,13,13,14,14,15,15],"right_children":[2,4,6,8,10,-1,-1,12,14,-1,16,18,20,22,24,26,-1,-1,-1,-1,-1,-1,-1,-1,-1,-1,-1],"split_conditions":[1E0,1E0,6E-1,5.4285717E-1,3.4285715E-1,-1.0807457E-1,-3.7317563E-2,8E-1,4E-1,7.33778E-2,8E-1,4.2857143E-1,3.4285715E-1,1E0,6E0,4.5714286E-1,8.0717854E-2,-2.2596495E-2,-7.727616E-2,-1.4893628E-2,1.8913396E-2,6.748136E-3,-7.731829E-2,5.802309E-2,-2.2093058E-2,-4.3306638E-2,3.2040153E-2],"split_indices":[13,17,2,0,0,0,0,2,2,0,2,0,0,7,5,0,0,0,0,0,0,0,0,0,0,0,0],"split_type":[0,0,0,0,0,0,0,0,0,0,0,0,0,0,0,0,0,0,0,0,0,0,0,0,0,0,0],"sum_hessian":[4.8E1,4.3E1,5E0,3.7E1,6E0,2E0,3E0,1.4E1,2.3E1,2E0,4E0,1.1E1,3E0,9E0,1.4E1,3E0,1E0,6E0,5E0,1E0,2E0,8E0,1E0,1.1E1,3E0,1E0,2E0],"tree_param":{"num_deleted":"0","num_feature":"21","num_nodes":"27","size_leaf_vector":"1"}},{"base_weights":[-3.2708615E-2,6.3729934E-2,-7.344732E-1,-2.2589482E-2,5.232168E-1,-1.0086962E-1,-3.4518767E-2,-3.6331788E-1,1.91307E-1,5.612033E-1,1.4764882E-2,-4.746971E-1,6.1649323E-2,-9.1570094E-2,3.671379E-1,6.641016E-2,2.3693784E-1,-2.0659665E-2,-7.083648E-2,-1.4148903E-2,1.7652512E-2,6.148296E-3,-7.3452376E-2,5.270427E-2,-2.0436097E-2,-4.114132E-2,7.6681994E-2],"categories":[],"categories_nodes":[],"categories_segments":[],"categories_sizes":[],"default_left":[0,0,0,0,0,0,0,0,0,0,0,0,0,0,0,0,0,0,0,0,0,0,0,0,0,0,0],"id":29,"left_children":[1,3,5,7,9,-1,-1,11,13,15,-1,17,19,21,23,-1,25,-1,-1,-1,-1,-1,-1,-1,-1,-1,-1],"loss_changes":[3.362989E0,1.7569753E0,2.923169E-1,2.838968E0,1.7004728E-2,0E0,0E0,7.3925257E-1,1.2273438E0,4.2847395E-2,0E0,6.054113E-1,1.18319094E-1,1.0292208E0,1.4784882E0,0E0,1.3461286E0,0E0,0E0,0E0,0E0,0E0,0E0,0E0,0E0,0E0,0E0],"parents":[2147483647,0,0,1,1,2,2,3,3,4,4,7,7,8,8,9,9,11,11,12,12,13,13,14,14,16,16],"right_children":[2,4,6,8,10,-1,-1,12,14,16,-1,18,20,22,24,-1,26,-1,-1,-1,-1,-1,-1,-1,-1,-1,-1],"split_conditions":[1E0,1E0,6E-1,5.4285717E-1,5.4285717E-1,-1.0086962E-1,-3.4518767E-2,8E-1,4E-1,5E0,1.4764882E-2,4.2857143E-1,3.4285715E-1,1E0,6E0,6.641016E-2,8E-1,-2.0659665E-2,-7.083648E-2,-1.4148903E-2,1.7652512E-2,6.148296E-3,-7.3452376E-2,5.270427E-2,-2.0436097E-2,-4.114132E-2,7.6681994E-2],"split_indices":[13,17,2,0,0,0,0,2,2,5,0,0,0,7,5,0,2,0,0,0,0,0,0,0,0,0,0],"split_type":[0,0,0,0,0,0,0,0,0,0,0,0,0,0,0,0,0,0,0,0,0,0,0,0,0,0,0],"sum_hessian":[4.8E1,4.3E1,5E0,3.7E1,6E0,2E0,3E0,1.4E1,2.3E1,5E0,1E0,1.1E1,3E0,9E0,1.4E1,3E0,2E0,6E0,5E0,1E0,2E0,8E0,1E0,1.1E1,3E0,1E0,1E0],"tree_param":{"num_deleted":"0","num_feature":"21","num_nodes":"27","size_leaf_vector":"1"}},{"base_weights":[-3.232921E-2,5.721387E-2,-6.8359023E-1,-2.35677E-2,4.87569E-1,-9.414495E-2,-3.192983E-2,-2.1754114E-1,2.8836098E-1,3.2600403E-1,7.284794E-2,-3.5622132E-1,1.7014231E-1,4.194131E-1,-1.768856E-1,5.475418E-1,-3.9084245E-2,-2.367878E-2,-6.1939087E-2,3.7447598E-2,-7.6726913E-3,5.2281972E-2,-3.5902977E-2,4.3560125E-2,-5.262483E-2,6.1429407E-2,1.4026642E-2],"categories":[],"categories_nodes":[],"categories_segments":[],"categories_sizes":[],"default_left":[0,0,0,0,0,0,0,0,0,0,0,0,0,0,0,0,0,0,0,0,0,0,0,0,0,0,0],"id":30,"left_children":[1,3,5,7,9,-1,-1,11,13,15,-1,17,19,21,23,25,-1,-1,-1,-1,-1,-1,-1,-1,-1,-1,-1],"loss_changes":[2.896591E0,1.5411404E0,2.630129E-1,2.3619537E0,3.4971476E-2,0E0,0E0,1.3509446E0,9.887613E-1,1.1668541E0,0E0,4.1909838E-1,3.8183814E-1,1.1536613E0,1.0851547E0,4.976785E-2,0E0,0E0,0E0,0E0,0E0,0E0,0E0,0E0,0E0,0E0,0E0],"parents":[2147483647,0,0,1,1,2,2,3,3,4,4,7,7,8,8,9,9,11,11,12,12,13,13,14,14,15,15],"right_children":[2,4,6,8,10,-1,-1,12,14,16,-1,18,20,22,24,26,-1,-1,-1,-1,-1,-1,-1,-1,-1,-1,-1],"split_conditions":[1E0,1E0,6E-1,6.571429E-1,8E-1,-9.414495E-2,-3.192983E-2,8E-1,1E0,5E0,7.284794E-2,1E0,1E0,5E0,7.714286E-1,5.4285717E-1,-3.9084245E-2,-2.367878E-2,-6.1939087E-2,3.7447598E-2,-7.6726913E-3,5.2281972E-2,-3.5902977E-2,4.3560125E-2,-5.262483E-2,6.1429407E-2,1.4026642E-2],"split_indices":[13,17,2,0,4,0,0,2,7,5,0,8,8,5,0,0,0,0,0,0,0,0,0,0,0,0,0],"split_type":[0,0,0,0,0,0,0,0,0,0,0,0,0,0,0,0,0,0,0,0,0,0,0,0,0,0,0],"sum_hessian":[4.8E1,4.3E1,5E0,3.7E1,6E0,2E0,3E0,2.3E1,1.4E1,5E0,1E0,1.7E1,6E0,1.1E1,3E0,4E0,1E0,1.3E1,4E0,3E0,3E0,1E1,1E0,1E0,2E0,3E0,1E0],"tree_param":{"num_deleted":"0","num_feature":"21","num_nodes":"27","size_leaf_vector":"1"}},{"base_weights":[-3.0430697E-2,5.2871834E-2,-6.362441E-1,-2.2487942E-2,4.5441464E-1,-7.967072E-2,-2.1021208E-2,-3.1231663E-1,1.5959199E-1,2.9946518E-1,6.9205575E-2,-4.035808E-1,3.9555073E-2,-6.390095E-2,3.5361686E-1,5.078785E-1,-3.713007E-2,-1.6312545E-2,-6.1684866E-2,-1.3057805E-2,1.3979213E-2,4.4981387E-2,-2.116253E-2,4.171184E-2,-2.0420074E-2,2.1091843E-2,6.355458E-2],"categories":[],"categories_nodes":[],"categories_segments":[],"categories_sizes":[],"default_left":[0,0,0,0,0,0,0,0,0,0,0,0,0,0,0,0,0,0,0,0,0,0,0,0,0,0,0],"id":31,"left_children":[1,3,5,7,9,-1,-1,11,13,15,-1,17,19,21,23,25,-1,-1,-1,-1,-1,-1,-1,-1,-1,-1,-1],"loss_changes":[2.5064633E0,1.3416666E0,2.4269676E-1,2.0551789E0,5.050993E-2,0E0,0E0,4.976629E-1,1.063313E0,1.0273547E0,0E0,5.1475286E-1,8.6468354E-2,1.0058501E0,5.456654E-1,5.551207E-2,0E0,0E0,0E0,0E0,0E0,0E0,0E0,0E0,0E0,0E0,0E0],"parents":[2147483647,0,0,1,1,2,2,3,3,4,4,7,7,8,8,9,9,11,11,12,12,13,13,14,14,15,15],"right_children":[2,4,6,8,10,-1,-1,12,14,16,-1,18,20,22,24,26,-1,-1,-1,-1,-1,-1,-1,-1,-1,-1,-1],"split_conditions":[1E0,1E0,8E-1,5.4285717E-1,8E-1,-7.967072E-2,-2.1021208E-2,8E-1,6E-1,5E0,6.9205575E-2,4.2857143E-1,3.4285715E-1,4E-1,1E0,3E0,-3.713007E-2,-1.6312545E-2,-6.1684866E-2,-1.3057805E-2,1.3979213E-2,4.4981387E-2,-2.116253E-2,4.171184E-2,-2.0420074E-2,2.1091843E-2,6.355458E-2],"split_indices":[13,17,2,0,4,0,0,2,4,5,0,0,0,4,11,5,0,0,0,0,0,0,0,0,0,0,0],"split_type":[0,0,0,0,0,0,0,0,0,0,0,0,0,0,0,0,0,0,0,0,0,0,0,0,0,0,0],"sum_hessian":[4.8E1,4.3E1,5E0,3.7E1,6E0,3E0,2E0,1.4E1,2.3E1,5E0,1E0,1.1E1,3E0,1.1E1,1.2E1,4E0,1E0,6E0,5E0,1E0,2E0,2E0,9E0,1.1E1,1E0,2E0,2E0],"tree_param":{"num_deleted":"0","num_feature":"21","num_nodes":"27","size_leaf_vector":"1"}},{"base_weights":[-2.7712997E-2,4.9510825E-2,-5.894022E-1,-2.108047E-2,4.2564774E-1,-8.25573E-2,-2.6492357E-1,-2.8622347E-1,1.4551227E-1,2.7743816E-1,6.574526E-2,-7.6966286E-3,-3.0192057E-2,-3.697227E-1,3.583002E-2,-1.1180973E-1,3.0735943E-1,4.7402E-1,-3.5273552E-2,-1.4914404E-2,-5.65444E-2,-1.2404919E-2,1.3047283E-2,-3.4903657E-2,1.9522438E-2,1.8019868E-2,1.0438051E-1,2.502513E-2,6.845474E-2],"categories":[],"categories_nodes":[],"categories_segments":[],"categories_sizes":[],"default_left":[0,0,0,0,0,0,0,0,0,0,0,0,0,0,0,0,0,0,0,0,0,0,0,0,0,0,0,0,0],"id":32,"left_children":[1,3,5,7,9,-1,11,13,15,17,-1,-1,-1,19,21,23,25,27,-1,-1,-1,-1,-1,-1,-1,-1,-1,-1,-1],"loss_changes":[2.1545954E0,1.1772605E0,2.4108076E-1,1.7201431E0,5.808747E-2,0E0,4.577726E-3,4.1661537E-1,1.03389E0,9.10488E-1,0E0,0E0,0E0,4.337306E-1,7.671071E-2,7.965076E-1,1.2166127E0,6.423831E-2,0E0,0E0,0E0,0E0,0E0,0E0,0E0,0E0,0E0,0E0,0E0],"parents":[2147483647,0,0,1,1,2,2,3,3,4,4,6,6,7,7,8,8,9,9,13,13,14,14,15,15,16,16,17,17],"right_children":[2,4,6,8,10,-1,12,14,16,18,-1,-1,-1,20,22,24,26,28,-1,-1,-1,-1,-1,-1,-1,-1,-1,-1,-1],"split_conditions":[1E0,1E0,6E-1,5.4285717E-1,8E-1,-8.25573E-2,1.4285715E-1,8E-1,4E-1,5E0,6.574526E-2,-7.6966286E-3,-3.0192057E-2,4.2857143E-1,3.4285715E-1,1E0,1E0,1E0,-3.5273552E-2,-1.4914404E-2,-5.65444E-2,-1.2404919E-2,1.3047283E-2,-3.4903657E-2,1.9522438E-2,1.8019868E-2,1.0438051E-1,2.502513E-2,6.845474E-2],"split_indices":[13,17,2,0,4,0,0,2,2,5,0,0,0,0,0,9,0,10,0,0,0,0,0,0,0,0,0,0,0],"split_type":[0,0,0,0,0,0,0,0,0,0,0,0,0,0,0,0,0,0,0,0,0,0,0,0,0,0,0,0,0],"sum_hessian":[4.8E1,4.3E1,5E0,3.7E1,6E0,2E0,3E0,1.4E1,2.3E1,5E0,1E0,1E0,2E0,1.1E1,3E0,9E0,1.4E1,4E0,1E0,6E0,5E0,1E0,2E0,5E0,4E0,1.3E1,1E0,3E0,1E0],"tree_param":{"num_deleted":"0","num_feature":"21","num_nodes":"29","size_leaf_vector":"1"}},{"base_weights":[-2.4131346E-2,4.819961E-2,-5.5053645E-1,-7.269001E-3,4.8230857E-1,-7.705345E-2,-2.4790382E-1,-9.106754E-2,4.007909E-1,-5.4662067E-2,8.585098E-2,-7.311821E-3,-2.8179297E-2,-1.7195918E-1,4.124958E-1,2.5939593E-1,6.245804E-2,4.682541E-3,-1.2881852E-2,-2.139495E-2,1.544652E-2,5.0647166E-2,1.8296242E-3,4.4531442E-2,-3.350983E-2],"categories":[],"categories_nodes":[],"categories_segments":[],"categories_sizes":[],"default_left":[0,0,0,0,0,0,0,0,0,0,0,0,0,0,0,0,0,0,0,0,0,0,0,0,0],"id":33,"left_children":[1,3,5,7,9,-1,11,13,15,17,-1,-1,-1,19,21,23,-1,-1,-1,-1,-1,-1,-1,-1,-1],"loss_changes":[1.8922296E0,1.0630006E0,2.0845318E-1,1.4042919E0,1.0569727E0,0E0,3.0891597E-3,1.4558907E0,5.9485316E-2,2.8609829E-2,0E0,0E0,0E0,4.4424766E-1,1.7595953E-1,8.123889E-1,0E0,0E0,0E0,0E0,0E0,0E0,0E0,0E0,0E0],"parents":[2147483647,0,0,1,1,2,2,3,3,4,4,6,6,7,7,8,8,9,9,13,13,14,14,15,15],"right_children":[2,4,6,8,10,-1,12,14,16,18,-1,-1,-1,20,22,24,-1,-1,-1,-1,-1,-1,-1,-1,-1],"split_conditions":[1E0,9.142857E-1,6E-1,1E0,3E0,-7.705345E-2,1.4285715E-1,1E0,8E-1,1E0,8.585098E-2,-7.311821E-3,-2.8179297E-2,1E0,7.714286E-1,5E0,6.245804E-2,4.682541E-3,-1.2881852E-2,-2.139495E-2,1.544652E-2,5.0647166E-2,1.8296242E-3,4.4531442E-2,-3.350983E-2],"split_indices":[13,0,2,17,5,0,0,2,4,0,0,0,0,14,0,5,0,0,0,0,0,0,0,0,0],"split_type":[0,0,0,0,0,0,0,0,0,0,0,0,0,0,0,0,0,0,0,0,0,0,0,0,0],"sum_hessian":[4.8E1,4.3E1,5E0,3.9E1,4E0,2E0,3E0,3.3E1,6E0,2E0,2E0,1E0,2E0,2.9E1,4E0,5E0,1E0,1E0,1E0,2.6E1,3E0,3E0,1E0,4E0,1E0],"tree_param":{"num_deleted":"0","num_feature":"21","num_nodes":"25","size_leaf_vector":"1"}},{"base_weights":[-1.9981228E-2,4.787185E-2,-5.1424026E-1,-3.5419464E-3,4.4960785E-1,-7.191658E-2,-2.3198605E-1,-8.059244E-2,3.712093E-1,-5.1928837E-2,8.0127525E-1,-6.9461823E-3,-2.6300684E-2,-1.5496165E-1,3.8174134E-1,2.352937E-1,5.933514E-2,4.448414E-3,-1.223774E-2,2.5322342E-2,9.486895E-2,-1.9668086E-2,1.6538335E-2,1.6096116E-3,4.691286E-2,4.0968973E-2,-3.1834316E-2],"categories":[],"categories_nodes":[],"categories_segments":[],"categories_sizes":[],"default_left":[0,0,0,0,0,0,0,0,0,0,0,0,0,0,0,0,0,0,0,0,0,0,0,0,0,0,0],"id":34,"left_children":[1,3,5,7,9,-1,11,13,15,17,19,-1,-1,21,23,25,-1,-1,-1,-1,-1,-1,-1,-1,-1,-1,-1],"loss_changes":[1.6679306E0,9.1040254E-1,1.8021023E-1,1.1849072E0,9.234798E-1,0E0,1.8975884E-3,1.2281909E0,7.17361E-2,2.5820317E-2,2.1414757E-3,0E0,0E0,4.3346387E-1,1.5221256E-1,7.0973426E-1,0E0,0E0,0E0,0E0,0E0,0E0,0E0,0E0,0E0,0E0,0E0],"parents":[2147483647,0,0,1,1,2,2,3,3,4,4,6,6,7,7,8,8,9,9,10,10,13,13,14,14,15,15],"right_children":[2,4,6,8,10,-1,12,14,16,18,20,-1,-1,22,24,26,-1,-1,-1,-1,-1,-1,-1,-1,-1,-1,-1],"split_conditions":[1E0,9.142857E-1,6E-1,1E0,3E0,-7.191658E-2,1.4285715E-1,1E0,8E-1,1E0,1E0,-6.9461823E-3,-2.6300684E-2,1E0,4.857143E-1,5E0,5.933514E-2,4.448414E-3,-1.223774E-2,2.5322342E-2,9.486895E-2,-1.9668086E-2,1.6538335E-2,1.6096116E-3,4.691286E-2,4.0968973E-2,-3.1834316E-2],"split_indices":[13,0,2,17,5,0,0,2,4,0,0,0,0,12,0,5,0,0,0,0,0,0,0,0,0,0,0],"split_type":[0,0,0,0,0,0,0,0,0,0,0,0,0,0,0,0,0,0,0,0,0,0,0,0,0,0,0],"sum_hessian":[4.8E1,4.3E1,5E0,3.9E1,4E0,2E0,3E0,3.3E1,6E0,2E0,2E0,1E0,2E0,2.9E1,4E0,5E0,1E0,1E0,1E0,1E0,1E0,2.6E1,3E0,1E0,3E0,4E0,1E0],"tree_param":{"num_deleted":"0","num_feature":"21","num_nodes":"27","size_leaf_vector":"1"}},{"base_weights":[-1.5511532E-2,4.822718E-2,-4.803435E-1,-3.4103394E-4,4.2712745E-1,-6.712215E-2,-2.1709919E-1,-7.119779E-2,3.4386906E-1,-4.9332302E-2,7.612114E-1,-6.598854E-3,-2.4547322E-2,-1.3956942E-1,3.5327148E-1,2.1328609E-1,5.636835E-2,4.2260173E-3,-1.1625863E-2,2.4056245E-2,9.0125464E-2,-2.1454703E-2,3.1840515E-3,4.446268E-2,-6.0749054E-4,3.7691385E-2,-3.0242635E-2],"categories":[],"categories_nodes":[],"categories_segments":[],"categories_sizes":[],"default_left":[0,0,0,0,0,0,0,0,0,0,0,0,0,0,0,0,0,0,0,0,0,0,0,0,0,0,0],"id":35,"left_children":[1,3,5,7,9,-1,11,13,15,17,19,-1,-1,21,23,25,-1,-1,-1,-1,-1,-1,-1,-1,-1,-1,-1],"loss_changes":[1.4749273E0,8.0985606E-1,1.557635E-1,1.0000672E0,8.3344E-1,0E0,9.520352E-4,1.0360421E0,8.0702305E-2,2.330295E-2,1.9321442E-3,0E0,0E0,3.9238846E-1,1.668421E-1,6.202978E-1,0E0,0E0,0E0,0E0,0E0,0E0,0E0,0E0,0E0,0E0,0E0],"parents":[2147483647,0,0,1,1,2,2,3,3,4,4,6,6,7,7,8,8,9,9,10,10,13,13,14,14,15,15],"right_children":[2,4,6,8,10,-1,12,14,16,18,20,-1,-1,22,24,26,-1,-1,-1,-1,-1,-1,-1,-1,-1,-1,-1],"split_conditions":[1E0,9.142857E-1,6E-1,1E0,3E0,-6.712215E-2,1.4285715E-1,1E0,8E-1,1E0,1E0,-6.598854E-3,-2.4547322E-2,1E0,7.714286E-1,5E0,5.636835E-2,4.2260173E-3,-1.1625863E-2,2.4056245E-2,9.0125464E-2,-2.1454703E-2,3.1840515E-3,4.446268E-2,-6.0749054E-4,3.7691385E-2,-3.0242635E-2],"split_indices":[13,0,2,17,5,0,0,2,4,0,0,0,0,10,0,5,0,0,0,0,0,0,0,0,0,0,0],"split_type":[0,0,0,0,0,0,0,0,0,0,0,0,0,0,0,0,0,0,0,0,0,0,0,0,0,0,0],"sum_hessian":[4.8E1,4.3E1,5E0,3.9E1,4E0,2E0,3E0,3.3E1,6E0,2E0,2E0,1E0,2E0,2.9E1,4E0,5E0,1E0,1E0,1E0,1E0,1E0,2E1,9E0,3E0,1E0,4E0,1E0],"tree_param":{"num_deleted":"0","num_feature":"21","num_nodes":"27","size_leaf_vector":"1"}},{"base_weights":[-1.1962307E-2,-3.612336E-1,6.499877E-2,-5.716298E-1,4.466915E-2,2.3814153E-2,8.561917E-2,-7.053955E-1,4.8599243E-3,2.6109505E-2,-1.145045E-2,-3.3726554E-2,3.5549927E-1,-8.3417036E-2,-9.514809E-3,-2.1313846E-1,1.2857497E-1,5.8872413E-2,1.9110946E-1,-1.604712E-2,-5.279074E-2,3.035824E-2,-2.148067E-2,-2.8862953E-3,5.3549957E-2],"categories":[],"categories_nodes":[],"categories_segments":[],"categories_sizes":[],"default_left":[0,0,0,0,0,0,0,0,0,0,0,0,0,0,0,0,0,0,0,0,0,0,0,0,0],"id":36,"left_children":[1,3,5,7,9,11,-1,13,-1,-1,-1,15,17,-1,-1,19,21,-1,23,-1,-1,-1,-1,-1,-1],"loss_changes":[1.3406142E0,7.9413795E-1,1.3155944E0,5.3207374E-1,1.6769375E-1,7.7540565E-1,0E0,3.1355286E-1,0E0,0E0,0E0,1.0465631E0,1.1752802E-1,0E0,0E0,1.9711238E-1,1.2070041E0,0E0,3.942377E-1,0E0,0E0,0E0,0E0,0E0,0E0],"parents":[2147483647,0,0,1,1,2,2,3,3,4,4,5,5,7,7,11,11,12,12,15,15,16,16,18,18],"right_children":[2,4,6,8,10,12,-1,14,-1,-1,-1,16,18,-1,-1,20,22,-1,24,-1,-1,-1,-1,-1,-1],"split_conditions":[2E-1,6E-1,1E0,1E0,4E-1,1E0,8.561917E-2,6E-1,4.8599243E-3,2.6109505E-2,-1.145045E-2,5.4285717E-1,4E-1,-8.3417036E-2,-9.514809E-3,5.1428574E-1,7.714286E-1,5.8872413E-2,8E-1,-1.604712E-2,-5.279074E-2,3.035824E-2,-2.148067E-2,-2.8862953E-3,5.3549957E-2],"split_indices":[2,0,0,17,4,17,0,4,0,0,0,0,2,0,0,0,0,0,4,0,0,0,0,0,0],"split_type":[0,0,0,0,0,0,0,0,0,0,0,0,0,0,0,0,0,0,0,0,0,0,0,0,0],"sum_hessian":[4.8E1,8E0,4E1,5E0,3E0,3.9E1,1E0,4E0,1E0,1E0,2E0,3.4E1,5E0,3E0,1E0,1.6E1,1.8E1,1E0,4E0,1.5E1,1E0,1.2E1,6E0,3E0,1E0],"tree_param":{"num_deleted":"0","num_feature":"21","num_nodes":"25","size_leaf_vector":"1"}},{"base_weights":[-9.505213E-3,4.7244634E-2,-4.2408657E-1,-8.123799E-3,3.410669E-1,-5.9331894E-2,-1.9114065E-1,4.305728E-2,-6.1958887E-2,1.2678401E-1,8.133822E-2,-5.4665566E-3,-2.184105E-2,-3.2162508E-1,1.1225202E-1,1.9402924E-1,-1.0472107E-2,-4.044178E-2,4.6169283E-3,3.3383295E-3,4.3530785E-2,3.248768E-2,-1.4947256E-4],"categories":[],"categories_nodes":[],"categories_segments":[],"categories_sizes":[],"default_left":[0,0,0,0,0,0,0,0,0,0,0,0,0,0,0,0,0,0,0,0,0,0,0],"id":37,"left_children":[1,3,5,7,9,-1,11,13,-1,15,-1,-1,-1,17,19,21,-1,-1,-1,-1,-1,-1,-1],"loss_changes":[1.1728799E0,7.185838E-1,1.231246E-1,1.2159047E0,6.053397E-1,0E0,2.9470772E-3,9.445307E-1,0E0,1.1372463E-1,0E0,0E0,0E0,2.0137584E-1,7.75317E-1,1.2840475E-1,0E0,0E0,0E0,0E0,0E0,0E0,0E0],"parents":[2147483647,0,0,1,1,2,2,3,3,4,4,6,6,7,7,9,9,13,13,14,14,15,15],"right_children":[2,4,6,8,10,-1,12,14,-1,16,-1,-1,-1,18,20,22,-1,-1,-1,-1,-1,-1,-1],"split_conditions":[1E0,8.5714287E-1,6E-1,8E-1,1E0,-5.9331894E-2,1.4285715E-1,2E-1,-6.1958887E-2,1E0,8.133822E-2,-5.4665566E-3,-2.184105E-2,1E0,6.571429E-1,4E-1,-1.0472107E-2,-4.044178E-2,4.6169283E-3,3.3383295E-3,4.3530785E-2,3.248768E-2,-1.4947256E-4],"split_indices":[13,0,2,0,8,0,0,2,0,0,0,0,0,17,0,2,0,0,0,0,0,0,0],"split_type":[0,0,0,0,0,0,0,0,0,0,0,0,0,0,0,0,0,0,0,0,0,0,0],"sum_hessian":[4.8E1,4.3E1,5E0,3.7E1,6E0,2E0,3E0,3.5E1,2E0,5E0,1E0,1E0,2E0,5E0,3E1,4E0,1E0,4E0,1E0,2.5E1,5E0,2E0,2E0],"tree_param":{"num_deleted":"0","num_feature":"21","num_nodes":"23","size_leaf_vector":"1"}},{"base_weights":[-9.255663E-3,4.3708626E-2,-3.9611784E-1,-8.651131E-3,3.2170323E-1,-6.484804E-2,-2.1594925E-1,3.9058525E-2,-5.7828333E-2,1.17749535E-1,7.7271275E-2,-2.439704E-2,-5.1932335E-3,-2.9543367E-1,1.02539E-1,1.810936E-1,-9.94854E-3,-3.720646E-2,4.3860436E-3,3.6603503E-3,4.380829E-2,3.0321822E-2,-1.3955435E-4],"categories":[],"categories_nodes":[],"categories_segments":[],"categories_sizes":[],"default_left":[0,0,0,0,0,0,0,0,0,0,0,0,0,0,0,0,0,0,0,0,0,0,0],"id":38,"left_children":[1,3,5,7,9,-1,11,13,-1,15,-1,-1,-1,17,19,21,-1,-1,-1,-1,-1,-1,-1],"loss_changes":[1.021318E0,6.432352E-1,1.3276803E-1,1.0553112E0,5.5290884E-1,0E0,1.0309756E-2,7.9470754E-1,0E0,1.0057942E-1,0E0,0E0,0E0,1.7232144E-1,6.698165E-1,1.11855224E-1,0E0,0E0,0E0,0E0,0E0,0E0,0E0],"parents":[2147483647,0,0,1,1,2,2,3,3,4,4,6,6,7,7,9,9,13,13,14,14,15,15],"right_children":[2,4,6,8,10,-1,12,14,-1,16,-1,-1,-1,18,20,22,-1,-1,-1,-1,-1,-1,-1],"split_conditions":[1E0,8.5714287E-1,2E-1,8E-1,1E0,-6.484804E-2,1E0,2E-1,-5.7828333E-2,1E0,7.7271275E-2,-2.439704E-2,-5.1932335E-3,1E0,7.1428573E-1,4E-1,-9.94854E-3,-3.720646E-2,4.3860436E-3,3.6603503E-3,4.380829E-2,3.0321822E-2,-1.3955435E-4],"split_indices":[13,0,2,0,8,0,2,2,0,0,0,0,0,17,0,2,0,0,0,0,0,0,0],"split_type":[0,0,0,0,0,0,0,0,0,0,0,0,0,0,0,0,0,0,0,0,0,0,0],"sum_hessian":[4.8E1,4.3E1,5E0,3.7E1,6E0,1E0,4E0,3.5E1,2E0,5E0,1E0,3E0,1E0,5E0,3E1,4E0,1E0,4E0,1E0,2.6E1,4E0,2E0,2E0],"tree_param":{"num_deleted":"0","num_feature":"21","num_nodes":"23","size_leaf_vector":"1"}},{"base_weights":[-9.148578E-3,4.05726E-2,-3.722458E-1,-8.9221755E-3,3.0346245E-1,-6.1605643E-2,-2.0027237E-1,3.5559706E-2,-5.3973075E-2,1.0934702E-1,7.340775E-2,-2.2567272E-2,-4.933548E-3,1.268133E-1,-1.833633E-1,1.6902085E-1,-9.451103E-3,1.3266945E-3,4.331153E-2,-2.620483E-2,1.1381277E-2,2.8300414E-2,-1.3027192E-4],"categories":[],"categories_nodes":[],"categories_segments":[],"categories_sizes":[],"default_left":[0,0,0,0,0,0,0,0,0,0,0,0,0,0,0,0,0,0,0,0,0,0,0],"id":39,"left_children":[1,3,5,7,9,-1,11,13,-1,15,-1,-1,-1,17,19,21,-1,-1,-1,-1,-1,-1,-1],"loss_changes":[8.997304E-1,5.752212E-1,1.2819463E-1,9.164244E-1,5.0485384E-1,0E0,8.035585E-3,7.424433E-1,0E0,8.8964276E-2,0E0,0E0,0E0,8.9852023E-1,2.8704065E-1,9.743887E-2,0E0,0E0,0E0,0E0,0E0,0E0,0E0],"parents":[2147483647,0,0,1,1,2,2,3,3,4,4,6,6,7,7,9,9,13,13,14,14,15,15],"right_children":[2,4,6,8,10,-1,12,14,-1,16,-1,-1,-1,18,20,22,-1,-1,-1,-1,-1,-1,-1],"split_conditions":[1E0,8.5714287E-1,2E-1,8E-1,1E0,-6.1605643E-2,1E0,1E0,-5.3973075E-2,1E0,7.340775E-2,-2.2567272E-2,-4.933548E-3,8E-1,1E0,4E-1,-9.451103E-3,1.3266945E-3,4.331153E-2,-2.620483E-2,1.1381277E-2,2.8300414E-2,-1.3027192E-4],"split_indices":[13,0,2,0,8,0,2,8,0,0,0,0,0,2,17,2,0,0,0,0,0,0,0],"split_type":[0,0,0,0,0,0,0,0,0,0,0,0,0,0,0,0,0,0,0,0,0,0,0],"sum_hessian":[4.8E1,4.3E1,5E0,3.7E1,6E0,1E0,4E0,3.5E1,2E0,5E0,1E0,3E0,1E0,2.5E1,1E1,4E0,1E0,1.9E1,6E0,8E0,2E0,2E0,2E0],"tree_param":{"num_deleted":"0","num_feature":"21","num_nodes":"23","size_leaf_vector":"1"}},{"base_weights":[-8.665513E-3,-2.8471437E-1,5.2141935E-2,-4.5882955E-1,4.7636986E-2,1.8576812E-2,6.973734E-2,-5.6498605E-1,3.5976411E-3,2.0248508E-2,-7.1474075E-2,-3.2871626E-2,3.1559658E-1,-6.8011716E-2,-5.223084E-3,-1.7425538E-3,-8.978558E-3,-1.8494752E-1,1.0492636E-1,5.5512525E-2,1.566658E-1,-1.004517E-2,-3.676472E-2,2.4401959E-2,-1.683791E-2,-4.595232E-3,4.8356917E-2],"categories":[],"categories_nodes":[],"categories_segments":[],"categories_sizes":[],"default_left":[0,0,0,0,0,0,0,0,0,0,0,0,0,0,0,0,0,0,0,0,0,0,0,0,0,0,0],"id":40,"left_children":[1,3,5,7,9,11,-1,13,-1,-1,15,17,19,-1,-1,-1,-1,21,23,-1,25,-1,-1,-1,-1,-1,-1],"loss_changes":[8.3735114E-1,5.42664E-1,8.7499315E-1,3.3548737E-1,8.8248916E-2,6.216223E-1,0E0,2.5964713E-1,0E0,0E0,1.4045676E-3,7.528572E-1,1.4144176E-1,0E0,0E0,0E0,0E0,2.2550434E-1,7.633716E-1,0E0,3.5340384E-1,0E0,0E0,0E0,0E0,0E0,0E0],"parents":[2147483647,0,0,1,1,2,2,3,3,4,4,5,5,7,7,10,10,11,11,12,12,17,17,18,18,20,20],"right_children":[2,4,6,8,10,12,-1,14,-1,-1,16,18,20,-1,-1,-1,-1,22,24,-1,26,-1,-1,-1,-1,-1,-1],"split_conditions":[2E-1,6E-1,1E0,1E0,4E-1,1E0,6.973734E-2,6E-1,3.5976411E-3,2.0248508E-2,7.714286E-1,5.4285717E-1,4E-1,-6.8011716E-2,-5.223084E-3,-1.7425538E-3,-8.978558E-3,4.5714286E-1,7.714286E-1,5.5512525E-2,8E-1,-1.004517E-2,-3.676472E-2,2.4401959E-2,-1.683791E-2,-4.595232E-3,4.8356917E-2],"split_indices":[2,0,0,17,4,17,0,4,0,0,0,0,2,0,0,0,0,0,0,0,4,0,0,0,0,0,0],"split_type":[0,0,0,0,0,0,0,0,0,0,0,0,0,0,0,0,0,0,0,0,0,0,0,0,0,0,0],"sum_hessian":[4.8E1,8E0,4E1,5E0,3E0,3.9E1,1E0,4E0,1E0,1E0,2E0,3.4E1,5E0,3E0,1E0,1E0,1E0,1.6E1,1.8E1,1E0,4E0,1.2E1,4E0,1.2E1,6E0,3E0,1E0],"tree_param":{"num_deleted":"0","num_feature":"21","num_nodes":"27","size_leaf_vector":"1"}},{"base_weights":[-6.3773952E-3,-2.6292166E-1,5.009274E-2,-4.245526E-1,4.5255184E-2,1.8219804E-2,6.625052E-2,-5.2313423E-1,3.417778E-3,1.9236088E-2,-6.790034E-2,-3.0705752E-2,3.0058226E-1,-6.2910795E-2,-4.9619675E-3,-1.6553879E-3,-8.529663E-3,-1.6920583E-1,9.483147E-2,5.2736856E-2,1.4975128E-1,-1.1886966E-2,-4.872923E-2,2.214941E-2,-1.5394648E-2,-4.250622E-3,4.5939066E-2],"categories":[],"categories_nodes":[],"categories_segments":[],"categories_sizes":[],"default_left":[0,0,0,0,0,0,0,0,0,0,0,0,0,0,0,0,0,0,0,0,0,0,0,0,0,0,0],"id":41,"left_children":[1,3,5,7,9,11,-1,13,-1,-1,15,17,19,-1,-1,-1,-1,21,23,-1,25,-1,-1,-1,-1,-1,-1],"loss_changes":[7.230379E-1,4.6751142E-1,7.88224E-1,2.8921402E-1,7.964466E-2,5.618192E-1,0E0,2.1968424E-1,0E0,0E0,1.2677237E-3,6.24588E-1,1.2626433E-1,0E0,0E0,0E0,0E0,2.1426705E-1,6.3280463E-1,0E0,3.1717944E-1,0E0,0E0,0E0,0E0,0E0,0E0],"parents":[2147483647,0,0,1,1,2,2,3,3,4,4,5,5,7,7,10,10,11,11,12,12,17,17,18,18,20,20],"right_children":[2,4,6,8,10,12,-1,14,-1,-1,16,18,20,-1,-1,-1,-1,22,24,-1,26,-1,-1,-1,-1,-1,-1],"split_conditions":[2E-1,6E-1,1E0,1E0,4E-1,1E0,6.625052E-2,6E-1,3.417778E-3,1.9236088E-2,7.714286E-1,5.4285717E-1,4E-1,-6.2910795E-2,-4.9619675E-3,-1.6553879E-3,-8.529663E-3,5.1428574E-1,7.714286E-1,5.2736856E-2,8E-1,-1.1886966E-2,-4.872923E-2,2.214941E-2,-1.5394648E-2,-4.250622E-3,4.5939066E-2],"split_indices":[2,0,0,17,4,17,0,4,0,0,0,0,2,0,0,0,0,0,0,0,4,0,0,0,0,0,0],"split_type":[0,0,0,0,0,0,0,0,0,0,0,0,0,0,0,0,0,0,0,0,0,0,0,0,0,0,0],"sum_hessian":[4.8E1,8E0,4E1,5E0,3E0,3.9E1,1E0,4E0,1E0,1E0,2E0,3.4E1,5E0,3E0,1E0,1E0,1E0,1.6E1,1.8E1,1E0,4E0,1.5E1,1E0,1.2E1,6E0,3E0,1E0],"tree_param":{"num_deleted":"0","num_feature":"21","num_nodes":"27","size_leaf_vector":"1"}},{"base_weights":[-4.690715E-3,3.751668E-2,-3.1342983E-1,-1.4781951E-6,3.3015862E-1,-5.1979255E-2,-1.6819878E-1,-5.2428525E-2,2.546444E-1,-9.21313E-3,5.594775E-2,-1.9229745E-2,-3.5902024E-3,-1.02944374E-1,2.6115227E-1,3.8678804E-1,1.2442932E-1,6.7212107E-3,-8.10318E-3,-6.2892E-3,-3.4756184E-2,3.3118155E-2,-9.4823836E-4,5.010004E-2,7.918167E-3,-6.2674046E-3,4.364214E-2],"categories":[],"categories_nodes":[],"categories_segments":[],"categories_sizes":[],"default_left":[0,0,0,0,0,0,0,0,0,0,0,0,0,0,0,0,0,0,0,0,0,0,0,0,0,0,0],"id":42,"left_children":[1,3,5,7,9,-1,11,13,15,17,-1,-1,-1,19,21,23,25,-1,-1,-1,-1,-1,-1,-1,-1,-1,-1],"loss_changes":[6.502815E-1,4.830935E-1,9.239322E-2,5.473639E-1,3.9427626E-1,0E0,9.037033E-3,5.6547135E-1,7.232189E-2,2.1912593E-2,0E0,0E0,0E0,2.720665E-1,9.790212E-2,6.572729E-2,3.1922615E-1,0E0,0E0,0E0,0E0,0E0,0E0,0E0,0E0,0E0,0E0],"parents":[2147483647,0,0,1,1,2,2,3,3,4,4,6,6,7,7,8,8,9,9,13,13,14,14,15,15,16,16],"right_children":[2,4,6,8,10,-1,12,14,16,18,-1,-1,-1,20,22,24,26,-1,-1,-1,-1,-1,-1,-1,-1,-1,-1],"split_conditions":[1E0,9.142857E-1,2E-1,1E0,3E0,-5.1979255E-2,1E0,1E0,3.4285715E-1,1E0,5.594775E-2,-1.9229745E-2,-3.5902024E-3,1E0,7.714286E-1,4E-1,8E-1,6.7212107E-3,-8.10318E-3,-6.2892E-3,-3.4756184E-2,3.3118155E-2,-9.4823836E-4,5.010004E-2,7.918167E-3,-6.2674046E-3,4.364214E-2],"split_indices":[13,0,2,17,5,0,2,2,0,0,0,0,0,16,0,2,2,0,0,0,0,0,0,0,0,0,0],"split_type":[0,0,0,0,0,0,0,0,0,0,0,0,0,0,0,0,0,0,0,0,0,0,0,0,0,0,0],"sum_hessian":[4.8E1,4.3E1,5E0,3.9E1,4E0,1E0,4E0,3.3E1,6E0,2E0,2E0,3E0,1E0,2.9E1,4E0,2E0,4E0,1E0,1E0,2.6E1,3E0,3E0,1E0,1E0,1E0,3E0,1E0],"tree_param":{"num_deleted":"0","num_feature":"21","num_nodes":"27","size_leaf_vector":"1"}},{"base_weights":[-2.8692752E-3,-7.4566215E-2,1.6461487E-1,-1.4860246E-1,2.4280766E-1,-3.1256266E-2,2.9866853E-1,-4.7022668E-1,-7.833351E-2,3.674488E-1,1.1946144E-1,1.2389406E-1,-4.810791E-2,3.914497E-1,-2.2179032E-2,-5.6578636E-2,-4.399395E-3,-1.5012562E-1,6.597752E-2,4.7595024E-2,7.522297E-3,-5.7973385E-2,4.1460037E-2,1.794651E-1,-7.698059E-3,6.0034752E-2,2.2175916E-1,-7.1622557E-3,-3.2420844E-2,1.9660434E-2,-2.6081085E-2,-2.8246785E-2,1.1101405E-2,2.235055E-2,1.6517639E-4,4.293963E-2,1.0591507E-3],"categories":[],"categories_nodes":[],"categories_segments":[],"categories_sizes":[],"default_left":[0,0,0,0,0,0,0,0,0,0,0,0,0,0,0,0,0,0,0,0,0,0,0,0,0,0,0,0,0,0,0,0,0,0,0,0,0],"id":43,"left_children":[1,3,5,7,9,11,13,15,17,19,21,23,-1,25,-1,-1,-1,27,29,-1,-1,31,-1,33,-1,-1,35,-1,-1,-1,-1,-1,-1,-1,-1,-1,-1],"loss_changes":[6.006716E-1,8.5848266E-1,4.0319398E-1,6.185712E-1,6.3722104E-2,5.4813397E-1,5.2141863E-1,1.7876208E-1,2.689147E-1,5.9318364E-2,2.8587538E-1,8.079221E-2,0E0,1.5045142E-1,0E0,0E0,0E0,2.09102E-1,4.3546242E-1,0E0,0E0,1.8310487E-1,0E0,3.878568E-2,0E0,0E0,2.585295E-1,0E0,0E0,0E0,0E0,0E0,0E0,0E0,0E0,0E0,0E0],"parents":[2147483647,0,0,1,1,2,2,3,3,4,4,5,5,6,6,7,7,8,8,9,9,10,10,11,11,13,13,17,17,18,18,21,21,23,23,26,26],"right_children":[2,4,6,8,10,12,14,16,18,20,22,24,-1,26,-1,-1,-1,28,30,-1,-1,32,-1,34,-1,-1,36,-1,-1,-1,-1,-1,-1,-1,-1,-1,-1],"split_conditions":[6.571429E-1,1E0,4E-1,2E-1,3.4285715E-1,1E0,6E0,6E-1,5.4285717E-1,4E-1,8E-1,1E0,-4.810791E-2,6E-1,-2.2179032E-2,-5.6578636E-2,-4.399395E-3,4.5714286E-1,6E-1,4.7595024E-2,7.522297E-3,4.5714286E-1,4.1460037E-2,1E0,-7.698059E-3,6.0034752E-2,7.714286E-1,-7.1622557E-3,-3.2420844E-2,1.9660434E-2,-2.6081085E-2,-2.8246785E-2,1.1101405E-2,2.235055E-2,1.6517639E-4,4.293963E-2,1.0591507E-3],"split_indices":[0,17,2,2,0,7,5,4,0,2,2,0,0,2,0,0,0,0,0,0,0,0,0,16,0,0,0,0,0,0,0,0,0,0,0,0,0],"split_type":[0,0,0,0,0,0,0,0,0,0,0,0,0,0,0,0,0,0,0,0,0,0,0,0,0,0,0,0,0,0,0,0,0,0,0,0,0],"sum_hessian":[4.8E1,3.4E1,1.4E1,2.8E1,6E0,6E0,8E0,4E0,2.4E1,2E0,4E0,5E0,1E0,7E0,1E0,3E0,1E0,1.6E1,8E0,1E0,1E0,3E0,1E0,4E0,1E0,2E0,5E0,1.2E1,4E0,6E0,2E0,1E0,2E0,3E0,1E0,2E0,3E0],"tree_param":{"num_deleted":"0","num_feature":"21","num_nodes":"37","size_leaf_vector":"1"}},{"base_weights":[-2.1536108E-3,3.583106E-2,-2.8034893E-1,-4.4476357E-3,2.4936812E-1,-4.6551373E-2,-1.5021324E-1,3.240119E-2,-4.45151E-2,1.0046673E-1,5.7138827E-2,-1.7250348E-2,-3.0526163E-3,-2.314326E-2,2.658201E-1,1.498127E-1,-7.313156E-3,-9.5975725E-3,2.2987422E-2,4.643695E-3,3.4428596E-2,2.0436049E-2,-3.4189224E-3],"categories":[],"categories_nodes":[],"categories_segments":[],"categories_sizes":[],"default_left":[0,0,0,0,0,0,0,0,0,0,0,0,0,0,0,0,0,0,0,0,0,0,0],"id":44,"left_children":[1,3,5,7,9,-1,11,13,-1,15,-1,-1,-1,17,19,21,-1,-1,-1,-1,-1,-1,-1],"loss_changes":[5.278359E-1,3.7955287E-1,7.4653E-2,6.315207E-1,2.782392E-1,0E0,8.073397E-3,4.7289643E-1,0E0,6.23543E-2,0E0,0E0,0E0,5.7489884E-1,1.0451105E-1,5.717142E-2,0E0,0E0,0E0,0E0,0E0,0E0,0E0],"parents":[2147483647,0,0,1,1,2,2,3,3,4,4,6,6,7,7,9,9,13,13,14,14,15,15],"right_children":[2,4,6,8,10,-1,12,14,-1,16,-1,-1,-1,18,20,22,-1,-1,-1,-1,-1,-1,-1],"split_conditions":[1E0,8.5714287E-1,2E-1,8E-1,1E0,-4.6551373E-2,1E0,6.571429E-1,-4.45151E-2,1E0,5.7138827E-2,-1.7250348E-2,-3.0526163E-3,1E0,4E-1,4E0,-7.313156E-3,-9.5975725E-3,2.2987422E-2,4.643695E-3,3.4428596E-2,2.0436049E-2,-3.4189224E-3],"split_indices":[13,0,2,0,8,0,2,0,0,0,0,0,0,17,2,5,0,0,0,0,0,0,0],"split_type":[0,0,0,0,0,0,0,0,0,0,0,0,0,0,0,0,0,0,0,0,0,0,0],"sum_hessian":[4.8E1,4.3E1,5E0,3.7E1,6E0,1E0,4E0,3.5E1,2E0,5E0,1E0,3E0,1E0,2.9E1,6E0,4E0,1E0,2.3E1,6E0,2E0,4E0,3E0,1E0],"tree_param":{"num_deleted":"0","num_feature":"21","num_nodes":"23","size_leaf_vector":"1"}},{"base_weights":[-1.7761698E-3,-2.0844501E-1,4.3633483E-2,-3.440895E-1,4.713297E-2,1.758337E-2,5.42819E-2,-4.2033082E-1,1.8558502E-3,1.6449451E-2,-4.681905E-2,-2.0878384E-2,2.3901303E-1,-5.0691605E-2,-3.6994934E-3,-7.534027E-5,-6.9475174E-3,-1.2744297E-1,7.5567745E-2,4.406586E-2,1.10552214E-1,-8.0561405E-3,-4.387741E-2,1.8257905E-2,-1.339629E-2,-5.2998066E-3,3.823767E-2],"categories":[],"categories_nodes":[],"categories_segments":[],"categories_sizes":[],"default_left":[0,0,0,0,0,0,0,0,0,0,0,0,0,0,0,0,0,0,0,0,0,0,0,0,0,0,0],"id":45,"left_children":[1,3,5,7,9,11,-1,13,-1,-1,15,17,19,-1,-1,-1,-1,21,23,-1,25,-1,-1,-1,-1,-1,-1],"loss_changes":[4.6894845E-1,3.2822767E-1,5.2361286E-1,1.7369324E-1,5.180689E-2,3.4565312E-1,0E0,1.4720285E-1,0E0,0E0,3.0786647E-3,3.6935157E-1,1.0670555E-1,0E0,0E0,0E0,0E0,2.1277857E-1,4.504796E-1,0E0,2.4255006E-1,0E0,0E0,0E0,0E0,0E0,0E0],"parents":[2147483647,0,0,1,1,2,2,3,3,4,4,5,5,7,7,10,10,11,11,12,12,17,17,18,18,20,20],"right_children":[2,4,6,8,10,12,-1,14,-1,-1,16,18,20,-1,-1,-1,-1,22,24,-1,26,-1,-1,-1,-1,-1,-1],"split_conditions":[2E-1,6E-1,1E0,1E0,4E-1,1E0,5.42819E-2,6E-1,1.8558502E-3,1.6449451E-2,7.714286E-1,5.4285717E-1,4E-1,-5.0691605E-2,-3.6994934E-3,-7.534027E-5,-6.9475174E-3,5.1428574E-1,7.714286E-1,4.406586E-2,8E-1,-8.0561405E-3,-4.387741E-2,1.8257905E-2,-1.339629E-2,-5.2998066E-3,3.823767E-2],"split_indices":[2,0,0,17,4,17,0,4,0,0,0,0,2,0,0,0,0,0,0,0,4,0,0,0,0,0,0],"split_type":[0,0,0,0,0,0,0,0,0,0,0,0,0,0,0,0,0,0,0,0,0,0,0,0,0,0,0],"sum_hessian":[4.8E1,8E0,4E1,5E0,3E0,3.9E1,1E0,4E0,1E0,1E0,2E0,3.4E1,5E0,3E0,1E0,1E0,1E0,1.6E1,1.8E1,1E0,4E0,1.5E1,1E0,1.2E1,6E0,3E0,1E0],"tree_param":{"num_deleted":"0","num_feature":"21","num_nodes":"27","size_leaf_vector":"1"}},{"base_weights":[-7.591637E-4,-3.8406283E-2,2.3061016E-1,-8.255155E-2,2.0041956E-1,9.715239E-2,5.156784E-2,-1.2862062E-1,1.769088E-1,3.208294E-1,8.808975E-2,1.4298363E-1,-6.6001895E-3,-3.2455158E-1,-8.0316685E-2,-1.0826111E-2,2.734828E-1,4.1862585E-2,6.2618256E-3,-7.1516514E-2,3.632574E-2,1.9162035E-2,-2.5781633E-3,-3.8917582E-2,-7.1525574E-5,-3.7956925E-3,-4.0654246E-2,-2.4971962E-3,8.732796E-4,3.78013E-2,-2.0053864E-3,-2.771883E-2,8.943685E-3],"categories":[],"categories_nodes":[],"categories_segments":[],"categories_sizes":[],"default_left":[0,0,0,0,0,0,0,0,0,0,0,0,0,0,0,0,0,0,0,0,0,0,0,0,0,0,0,0,0,0,0,0,0],"id":46,"left_children":[1,3,5,7,9,11,-1,13,15,17,19,21,-1,23,25,27,29,-1,-1,31,-1,-1,-1,-1,-1,-1,-1,-1,-1,-1,-1,-1,-1],"loss_changes":[4.356659E-1,4.698952E-1,2.162126E-1,4.6501884E-1,6.6417515E-2,5.4302562E-2,0E0,2.767887E-1,1.117426E-1,4.9542755E-2,2.4557135E-1,4.5981236E-2,0E0,1.2528759E-1,3.576777E-1,1.0481072E-3,1.3031435E-1,0E0,0E0,1.572051E-1,0E0,0E0,0E0,0E0,0E0,0E0,0E0,0E0,0E0,0E0,0E0,0E0,0E0],"parents":[2147483647,0,0,1,1,2,2,3,3,4,4,5,5,7,7,8,8,9,9,10,10,11,11,13,13,14,14,15,15,16,16,19,19],"right_children":[2,4,6,8,10,12,-1,14,16,18,20,22,-1,24,26,28,30,-1,-1,32,-1,-1,-1,-1,-1,-1,-1,-1,-1,-1,-1,-1,-1],"split_conditions":[8.5714287E-1,1E0,1E0,1E0,3.4285715E-1,1E0,5.156784E-2,2E-1,4.857143E-1,4E-1,8E-1,4E0,-6.6001895E-3,6E-1,7.714286E-1,1.4285715E-1,7.714286E-1,4.1862585E-2,6.2618256E-3,4.5714286E-1,3.632574E-2,1.9162035E-2,-2.5781633E-3,-3.8917582E-2,-7.1525574E-5,-3.7956925E-3,-4.0654246E-2,-2.4971962E-3,8.732796E-4,3.78013E-2,-2.0053864E-3,-2.771883E-2,8.943685E-3],"split_indices":[0,17,8,2,0,0,0,2,0,2,2,5,0,0,0,0,0,0,0,0,0,0,0,0,0,0,0,0,0,0,0,0,0],"split_type":[0,0,0,0,0,0,0,0,0,0,0,0,0,0,0,0,0,0,0,0,0,0,0,0,0,0,0,0,0,0,0,0,0],"sum_hessian":[4.8E1,4.2E1,6E0,3.6E1,6E0,5E0,1E0,3.1E1,5E0,2E0,4E0,4E0,1E0,5E0,2.6E1,2E0,3E0,1E0,1E0,3E0,1E0,3E0,1E0,4E0,1E0,2.4E1,2E0,1E0,1E0,2E0,1E0,1E0,2E0],"tree_param":{"num_deleted":"0","num_feature":"21","num_nodes":"33","size_leaf_vector":"1"}},{"base_weights":[9.078201E-4,3.385236E-2,-2.4083678E-1,-6.551241E-4,2.1634266E-1,-3.974333E-2,-1.3003083E-1,3.09284E-2,-3.7943903E-2,8.910147E-2,4.8989486E-2,-1.5067673E-2,-2.3723603E-3,9.6307464E-2,-1.264156E-1,1.3200264E-1,-6.270218E-3,1.3843536E-3,3.1816047E-2,-1.8233279E-2,8.347448E-3,1.7724944E-2,-2.4492263E-3],"categories":[],"categories_nodes":[],"categories_segments":[],"categories_sizes":[],"default_left":[0,0,0,0,0,0,0,0,0,0,0,0,0,0,0,0,0,0,0,0,0,0,0],"id":47,"left_children":[1,3,5,7,9,-1,11,13,-1,15,-1,-1,-1,17,19,21,-1,-1,-1,-1,-1,-1,-1],"loss_changes":[3.9839694E-1,2.772221E-1,5.2432388E-2,4.6634203E-1,1.9999939E-1,0E0,7.3994473E-3,3.8250688E-1,0E0,4.7352172E-2,0E0,0E0,0E0,4.7126216E-1,1.4432122E-1,3.9745703E-2,0E0,0E0,0E0,0E0,0E0,0E0,0E0],"parents":[2147483647,0,0,1,1,2,2,3,3,4,4,6,6,7,7,9,9,13,13,14,14,15,15],"right_children":[2,4,6,8,10,-1,12,14,-1,16,-1,-1,-1,18,20,22,-1,-1,-1,-1,-1,-1,-1],"split_conditions":[1E0,8.5714287E-1,2E-1,8E-1,1E0,-3.974333E-2,1E0,1E0,-3.7943903E-2,1E0,4.8989486E-2,-1.5067673E-2,-2.3723603E-3,8E-1,1E0,4E0,-6.270218E-3,1.3843536E-3,3.1816047E-2,-1.8233279E-2,8.347448E-3,1.7724944E-2,-2.4492263E-3],"split_indices":[13,0,2,0,8,0,2,8,0,0,0,0,0,2,17,5,0,0,0,0,0,0,0],"split_type":[0,0,0,0,0,0,0,0,0,0,0,0,0,0,0,0,0,0,0,0,0,0,0],"sum_hessian":[4.8E1,4.3E1,5E0,3.7E1,6E0,1E0,4E0,3.5E1,2E0,5E0,1E0,3E0,1E0,2.5E1,1E1,4E0,1E0,1.9E1,6E0,8E0,2E0,3E0,1E0],"tree_param":{"num_deleted":"0","num_feature":"21","num_nodes":"23","size_leaf_vector":"1"}},{"base_weights":[5.3475826E-4,-5.551556E-2,1.312832E-1,-1.099403E-1,1.7788914E-1,-3.009006E-2,2.4220869E-1,-3.470005E-1,-5.8130644E-2,2.9372087E-1,7.2812274E-2,9.448465E-2,-3.8876917E-2,3.0809593E-1,-1.4244461E-2,-4.2556144E-2,-1.6378403E-3,7.2598696E-2,-1.130031E-1,3.970022E-2,4.3579102E-3,-7.357788E-2,3.2918643E-2,1.3720855E-1,-5.9567452E-3,4.729074E-2,1.7434089E-1,-6.759415E-3,2.2969007E-2,-2.0458794E-3,-2.0327419E-2,-2.6402092E-2,7.79101E-3,1.7219638E-2,-1.3713837E-4,3.4324393E-2,4.0783882E-4],"categories":[],"categories_nodes":[],"categories_segments":[],"categories_sizes":[],"default_left":[0,0,0,0,0,0,0,0,0,0,0,0,0,0,0,0,0,0,0,0,0,0,0,0,0,0,0,0,0,0,0,0,0,0,0,0,0],"id":48,"left_children":[1,3,5,7,9,11,13,15,17,19,21,23,-1,25,-1,-1,-1,27,29,-1,-1,31,-1,33,-1,-1,35,-1,-1,-1,-1,-1,-1,-1,-1,-1,-1],"loss_changes":[3.6638433E-1,4.641618E-1,2.757942E-1,3.3600685E-1,6.381215E-2,3.4950912E-1,2.719803E-1,1.2289989E-1,1.8753985E-1,6.020394E-2,2.118741E-1,4.7663417E-2,0E0,9.390783E-2,0E0,0E0,0E0,1.9171041E-1,1.4621463E-1,0E0,0E0,1.3596922E-1,0E0,2.4479203E-2,0E0,0E0,1.711472E-1,0E0,0E0,0E0,0E0,0E0,0E0,0E0,0E0,0E0,0E0],"parents":[2147483647,0,0,1,1,2,2,3,3,4,4,5,5,6,6,7,7,8,8,9,9,10,10,11,11,13,13,17,17,18,18,21,21,23,23,26,26],"right_children":[2,4,6,8,10,12,14,16,18,20,22,24,-1,26,-1,-1,-1,28,30,-1,-1,32,-1,34,-1,-1,36,-1,-1,-1,-1,-1,-1,-1,-1,-1,-1],"split_conditions":[6.571429E-1,1E0,4E-1,2E-1,3.4285715E-1,1E0,6E0,6E-1,4E0,4E-1,8E-1,1E0,-3.8876917E-2,6E-1,-1.4244461E-2,-4.2556144E-2,-1.6378403E-3,4.857143E-1,4.5714286E-1,3.970022E-2,4.3579102E-3,4.5714286E-1,3.2918643E-2,1E0,-5.9567452E-3,4.729074E-2,7.714286E-1,-6.759415E-3,2.2969007E-2,-2.0458794E-3,-2.0327419E-2,-2.6402092E-2,7.79101E-3,1.7219638E-2,-1.3713837E-4,3.4324393E-2,4.0783882E-4],"split_indices":[0,17,2,2,0,7,5,4,5,2,2,0,0,2,0,0,0,0,0,0,0,0,0,16,0,0,0,0,0,0,0,0,0,0,0,0,0],"split_type":[0,0,0,0,0,0,0,0,0,0,0,0,0,0,0,0,0,0,0,0,0,0,0,0,0,0,0,0,0,0,0,0,0,0,0,0,0],"sum_hessian":[4.8E1,3.4E1,1.4E1,2.8E1,6E0,6E0,8E0,4E0,2.4E1,2E0,4E0,5E0,1E0,7E0,1E0,3E0,1E0,7E0,1.7E1,1E0,1E0,3E0,1E0,4E0,1E0,2E0,5E0,4E0,3E0,9E0,8E0,1E0,2E0,3E0,1E0,2E0,3E0],"tree_param":{"num_deleted":"0","num_feature":"21","num_nodes":"37","size_leaf_vector":"1"}},{"base_weights":[1.4616324E-3,3.1224208E-2,-2.1704085E-1,7.763913E-4,1.9205175E-1,-3.1179776E-2,-9.171295E-2,2.88558E-2,-3.3643533E-2,7.680893E-2,4.4175435E-2,-1.915741E-3,-1.0951233E-2,-3.0798912E-2,1.672346E-1,1.1480637E-1,-5.658913E-3,-8.381913E-3,2.0864984E-2,2.2204457E-2,-1.9043256E-2,1.5524387E-2,-2.3471832E-3],"categories":[],"categories_nodes":[],"categories_segments":[],"categories_sizes":[],"default_left":[0,0,0,0,0,0,0,0,0,0,0,0,0,0,0,0,0,0,0,0,0,0,0],"id":49,"left_children":[1,3,5,7,9,-1,11,13,-1,15,-1,-1,-1,17,19,21,-1,-1,-1,-1,-1,-1,-1],"loss_changes":[3.2543355E-1,2.1531218E-1,4.265821E-2,3.6951888E-1,1.6750437E-1,0E0,3.067799E-3,3.0232877E-1,0E0,3.6909502E-2,0E0,0E0,0E0,3.4757507E-1,2.579255E-1,3.160198E-2,0E0,0E0,0E0,0E0,0E0,0E0,0E0],"parents":[2147483647,0,0,1,1,2,2,3,3,4,4,6,6,7,7,9,9,13,13,14,14,15,15],"right_children":[2,4,6,8,10,-1,12,14,-1,16,-1,-1,-1,18,20,22,-1,-1,-1,-1,-1,-1,-1],"split_conditions":[1E0,8.5714287E-1,6E-1,8E-1,1E0,-3.1179776E-2,1.4285715E-1,8E-1,-3.3643533E-2,1E0,4.4175435E-2,-1.915741E-3,-1.0951233E-2,6.571429E-1,1E0,4E0,-5.658913E-3,-8.381913E-3,2.0864984E-2,2.2204457E-2,-1.9043256E-2,1.5524387E-2,-2.3471832E-3],"split_indices":[13,0,2,0,8,0,0,2,0,0,0,0,0,0,11,5,0,0,0,0,0,0,0],"split_type":[0,0,0,0,0,0,0,0,0,0,0,0,0,0,0,0,0,0,0,0,0,0,0],"sum_hessian":[4.8E1,4.3E1,5E0,3.7E1,6E0,2E0,3E0,3.5E1,2E0,5E0,1E0,1E0,2E0,2.5E1,1E1,4E0,1E0,2.1E1,4E0,9E0,1E0,3E0,1E0],"tree_param":{"num_deleted":"0","num_feature":"21","num_nodes":"23","size_leaf_vector":"1"}},{"base_weights":[1.1044911E-3,2.8867895E-2,-2.0267789E-1,2.254185E-4,1.8023165E-1,-3.4069397E-2,-1.0693588E-1,2.6405122E-2,-3.1400617E-2,7.0381485E-2,4.196663E-2,-1.245699E-2,-1.8199921E-3,8.048417E-2,-1.0381854E-1,1.05961606E-1,-5.3759576E-3,1.3768006E-3,2.5960404E-2,-1.5524991E-2,8.508174E-3,1.6920535E-2,7.397334E-4],"categories":[],"categories_nodes":[],"categories_segments":[],"categories_sizes":[],"default_left":[0,0,0,0,0,0,0,0,0,0,0,0,0,0,0,0,0,0,0,0,0,0,0],"id":50,"left_children":[1,3,5,7,9,-1,11,13,-1,15,-1,-1,-1,17,19,21,-1,-1,-1,-1,-1,-1,-1],"loss_changes":[2.830778E-1,1.9071841E-1,4.2851195E-2,3.20898E-1,1.545768E-1,0E0,5.5566877E-3,2.6188114E-1,0E0,3.2198176E-2,0E0,0E0,0E0,3.0713075E-1,1.2007834E-1,2.991619E-2,0E0,0E0,0E0,0E0,0E0,0E0,0E0],"parents":[2147483647,0,0,1,1,2,2,3,3,4,4,6,6,7,7,9,9,13,13,14,14,15,15],"right_children":[2,4,6,8,10,-1,12,14,-1,16,-1,-1,-1,18,20,22,-1,-1,-1,-1,-1,-1,-1],"split_conditions":[1E0,8.5714287E-1,2E-1,8E-1,1E0,-3.4069397E-2,1E0,1E0,-3.1400617E-2,1E0,4.196663E-2,-1.245699E-2,-1.8199921E-3,8E-1,1E0,4E-1,-5.3759576E-3,1.3768006E-3,2.5960404E-2,-1.5524991E-2,8.508174E-3,1.6920535E-2,7.397334E-4],"split_indices":[13,0,2,0,8,0,2,8,0,0,0,0,0,2,19,2,0,0,0,0,0,0,0],"split_type":[0,0,0,0,0,0,0,0,0,0,0,0,0,0,0,0,0,0,0,0,0,0,0],"sum_hessian":[4.8E1,4.3E1,5E0,3.7E1,6E0,1E0,4E0,3.5E1,2E0,5E0,1E0,3E0,1E0,2.5E1,1E1,4E0,1E0,1.9E1,6E0,8E0,2E0,2E0,2E0],"tree_param":{"num_deleted":"0","num_feature":"21","num_nodes":"23","size_leaf_vector":"1"}},{"base_weights":[8.883379E-4,-1.5215969E-1,3.446258E-2,-2.447397E-1,2.4750233E-2,1.5390014E-2,3.986826E-2,-3.0050525E-1,1.7044068E-3,1.1299515E-2,-4.232979E-2,-1.413923E-2,1.8507893E-1,-3.696034E-2,-1.2056351E-3,-1.2423516E-3,-5.107117E-3,-1.0065516E-1,6.4013936E-2,3.3106234E-2,2.932167E-2,-5.670059E-3,-4.019642E-2,1.42610995E-2,-9.109688E-3,-2.4731731E-2,2.0397378E-2],"categories":[],"categories_nodes":[],"categories_segments":[],"categories_sizes":[],"default_left":[0,0,0,0,0,0,0,0,0,0,0,0,0,0,0,0,0,0,0,0,0,0,0,0,0,0,0],"id":51,"left_children":[1,3,5,7,9,11,-1,13,-1,-1,15,17,19,-1,-1,-1,-1,21,23,-1,25,-1,-1,-1,-1,-1,-1],"loss_changes":[2.5702894E-1,1.5346225E-1,2.7867526E-1,9.271294E-2,2.8460944E-2,2.030483E-1,0E0,9.52003E-2,0E0,0E0,1.4978228E-4,2.4309562E-1,1.2672055E-1,0E0,0E0,0E0,0E0,2.0235488E-1,2.4462524E-1,0E0,2.4370858E-1,0E0,0E0,0E0,0E0,0E0,0E0],"parents":[2147483647,0,0,1,1,2,2,3,3,4,4,5,5,7,7,10,10,11,11,12,12,17,17,18,18,20,20],"right_children":[2,4,6,8,10,12,-1,14,-1,-1,16,18,20,-1,-1,-1,-1,22,24,-1,26,-1,-1,-1,-1,-1,-1],"split_conditions":[2E-1,6E-1,1E0,1E0,4E-1,1E0,3.986826E-2,6E-1,1.7044068E-3,1.1299515E-2,7.714286E-1,5.4285717E-1,6E-1,-3.696034E-2,-1.2056351E-3,-1.2423516E-3,-5.107117E-3,5.1428574E-1,7.714286E-1,3.3106234E-2,8E-1,-5.670059E-3,-4.019642E-2,1.42610995E-2,-9.109688E-3,-2.4731731E-2,2.0397378E-2],"split_indices":[2,0,0,17,4,17,0,4,0,0,0,0,2,0,0,0,0,0,0,0,2,0,0,0,0,0,0],"split_type":[0,0,0,0,0,0,0,0,0,0,0,0,0,0,0,0,0,0,0,0,0,0,0,0,0,0,0],"sum_hessian":[4.8E1,8E0,4E1,5E0,3E0,3.9E1,1E0,4E0,1E0,1E0,2E0,3.4E1,5E0,3E0,1E0,1E0,1E0,1.6E1,1.8E1,2E0,3E0,1.5E1,1E0,1.2E1,6E0,1E0,2E0],"tree_param":{"num_deleted":"0","num_feature":"21","num_nodes":"27","size_leaf_vector":"1"}},{"base_weights":[7.264468E-4,-4.4604957E-2,1.0645129E-1,-9.04054E-2,1.5151188E-1,-3.5942893E-2,2.053744E-1,-2.780878E-1,-4.92527E-2,2.3983955E-1,2.5306225E-2,6.881777E-2,-3.3225346E-2,2.556076E-1,-9.824562E-3,-3.4188297E-2,-1.1453629E-3,5.889368E-2,-9.45815E-2,3.0899176E-2,1.6191483E-3,-1.5188853E-1,2.7844524E-2,1.0198822E-1,-4.8517226E-3,3.8720895E-2,1.4720567E-1,-6.035347E-3,1.932292E-2,-7.1502686E-4,-1.8121826E-2,7.1182253E-4,-2.3495102E-2,1.2784958E-3,1.571954E-2,2.8738404E-2,5.2704813E-4],"categories":[],"categories_nodes":[],"categories_segments":[],"categories_sizes":[],"default_left":[0,0,0,0,0,0,0,0,0,0,0,0,0,0,0,0,0,0,0,0,0,0,0,0,0,0,0,0,0,0,0,0,0,0,0,0,0],"id":52,"left_children":[1,3,5,7,9,11,13,15,17,19,21,23,-1,25,-1,-1,-1,27,29,-1,-1,31,-1,33,-1,-1,35,-1,-1,-1,-1,-1,-1,-1,-1,-1,-1],"loss_changes":[2.3958836E-1,3.280758E-1,2.1867289E-1,2.102889E-1,7.196273E-2,2.401568E-1,1.6237861E-1,8.113402E-2,1.281239E-1,5.686E-2,2.2171228E-1,2.830051E-2,0E0,5.7127357E-2,0E0,0E0,0E0,1.3981508E-1,1.3504985E-1,0E0,0E0,4.1294925E-2,0E0,2.2613574E-2,0E0,0E0,1.17862806E-1,0E0,0E0,0E0,0E0,0E0,0E0,0E0,0E0,0E0,0E0],"parents":[2147483647,0,0,1,1,2,2,3,3,4,4,5,5,6,6,7,7,8,8,9,9,10,10,11,11,13,13,17,17,18,18,21,21,23,23,26,26],"right_children":[2,4,6,8,10,12,14,16,18,20,22,24,-1,26,-1,-1,-1,28,30,-1,-1,32,-1,34,-1,-1,36,-1,-1,-1,-1,-1,-1,-1,-1,-1,-1],"split_conditions":[6.571429E-1,1E0,4E-1,2E-1,6E-1,1E0,6E0,6E-1,4E0,5.4285717E-1,8E-1,1E0,-3.3225346E-2,6E-1,-9.824562E-3,-3.4188297E-2,-1.1453629E-3,4.857143E-1,4.5714286E-1,3.0899176E-2,1.6191483E-3,3.4285715E-1,2.7844524E-2,7.714286E-1,-4.8517226E-3,3.8720895E-2,7.714286E-1,-6.035347E-3,1.932292E-2,-7.1502686E-4,-1.8121826E-2,7.1182253E-4,-2.3495102E-2,1.2784958E-3,1.571954E-2,2.8738404E-2,5.2704813E-4],"split_indices":[0,17,2,2,2,7,5,4,5,0,4,0,0,2,0,0,0,0,0,0,0,0,0,0,0,0,0,0,0,0,0,0,0,0,0,0,0],"split_type":[0,0,0,0,0,0,0,0,0,0,0,0,0,0,0,0,0,0,0,0,0,0,0,0,0,0,0,0,0,0,0,0,0,0,0,0,0],"sum_hessian":[4.8E1,3.4E1,1.4E1,2.8E1,6E0,6E0,8E0,4E0,2.4E1,3E0,3E0,5E0,1E0,7E0,1E0,3E0,1E0,7E0,1.7E1,2E0,1E0,2E0,1E0,4E0,1E0,2E0,5E0,4E0,3E0,9E0,8E0,1E0,1E0,2E0,2E0,2E0,3E0],"tree_param":{"num_deleted":"0","num_feature":"21","num_nodes":"37","size_leaf_vector":"1"}},{"base_weights":[1.3432016E-3,2.51503E-2,-1.7346604E-1,4.1053295E-3,1.8847999E-1,-2.2541666E-2,-4.6376545E-2,-3.741534E-2,1.0410484E-1,-5.850474E-3,3.199838E-2,-1.1437417E-3,-5.8127404E-3,-5.876174E-3,-2.3306608E-1,1.4469944E-1,-1.7121792E-2,3.731537E-3,-4.609108E-3,-5.0996607E-3,1.9382898E-2,-1.2441635E-3,-3.0246034E-2,1.9963732E-2,-6.83473E-3],"categories":[],"categories_nodes":[],"categories_segments":[],"categories_sizes":[],"default_left":[0,0,0,0,0,0,0,0,0,0,0,0,0,0,0,0,0,0,0,0,0,0,0,0,0],"id":53,"left_children":[1,3,5,7,9,-1,11,13,15,17,-1,-1,-1,19,21,23,-1,-1,-1,-1,-1,-1,-1,-1,-1],"loss_changes":[2.0828606E-1,1.5046602E-1,2.9160216E-2,1.6997698E-1,1.2964806E-1,0E0,5.668672E-4,1.7757964E-1,1.5889455E-1,6.930964E-3,0E0,0E0,0E0,2.4416496E-1,5.7477176E-2,1.4239232E-1,0E0,0E0,0E0,0E0,0E0,0E0,0E0,0E0,0E0],"parents":[2147483647,0,0,1,1,2,2,3,3,4,4,6,6,7,7,8,8,9,9,13,13,14,14,15,15],"right_children":[2,4,6,8,10,-1,12,14,16,18,-1,-1,-1,20,22,24,-1,-1,-1,-1,-1,-1,-1,-1,-1],"split_conditions":[1E0,9.142857E-1,8E-1,8E-1,3E0,-2.2541666E-2,1.4285715E-1,1E0,1E0,1E0,3.199838E-2,-1.1437417E-3,-5.8127404E-3,7.1428573E-1,2E-1,7.714286E-1,-1.7121792E-2,3.731537E-3,-4.609108E-3,-5.0996607E-3,1.9382898E-2,-1.2441635E-3,-3.0246034E-2,1.9963732E-2,-6.83473E-3],"split_indices":[13,0,2,2,5,0,0,16,11,0,0,0,0,0,2,0,0,0,0,0,0,0,0,0,0],"split_type":[0,0,0,0,0,0,0,0,0,0,0,0,0,0,0,0,0,0,0,0,0,0,0,0,0],"sum_hessian":[4.8E1,4.3E1,5E0,3.9E1,4E0,3E0,2E0,2.8E1,1.1E1,2E0,2E0,1E0,1E0,2.5E1,3E0,1E1,1E0,1E0,1E0,2.1E1,4E0,1E0,2E0,8E0,2E0],"tree_param":{"num_deleted":"0","num_feature":"21","num_nodes":"25","size_leaf_vector":"1"}},{"base_weights":[8.095917E-4,-2.03583E-1,1.8565262E-2,-2.76814E-2,-8.690135E-3,-6.0190476E-4,1.758564E-1,-2.7718225E-2,1.3893946E-1,-5.558014E-3,2.9865203E-2,-5.239868E-2,1.0441717E-1,2.2781038E-1,1.53336525E-2,3.5449981E-3,-4.3787E-3,-2.6922568E-3,-2.1763181E-2,-2.8873445E-3,1.7828083E-2,3.5120297E-2,6.961187E-3,-1.4924876E-2,2.5454044E-2],"categories":[],"categories_nodes":[],"categories_segments":[],"categories_sizes":[],"default_left":[0,0,0,0,0,0,0,0,0,0,0,0,0,0,0,0,0,0,0,0,0,0,0,0,0],"id":54,"left_children":[1,3,5,-1,-1,7,9,11,13,15,-1,17,19,21,23,-1,-1,-1,-1,-1,-1,-1,-1,-1,-1],"loss_changes":[1.8160681E-1,1.0123342E-2,1.387878E-1,0E0,0E0,1.6277279E-1,1.13044396E-1,1.2287314E-1,7.340157E-2,6.255331E-3,0E0,1.2463524E-1,6.421957E-2,5.3634197E-2,1.9546677E-1,0E0,0E0,0E0,0E0,0E0,0E0,0E0,0E0,0E0,0E0],"parents":[2147483647,0,0,1,1,2,2,5,5,6,6,7,7,8,8,9,9,11,11,12,12,13,13,14,14],"right_children":[2,4,6,-1,-1,8,10,12,14,16,-1,18,20,22,24,-1,-1,-1,-1,-1,-1,-1,-1,-1,-1],"split_conditions":[2E-1,2E-1,9.142857E-1,-2.76814E-2,-8.690135E-3,1E0,3E0,1E0,6E-1,1E0,2.9865203E-2,1E0,4.857143E-1,3.4285715E-1,8E-1,3.5449981E-3,-4.3787E-3,-2.6922568E-3,-2.1763181E-2,-2.8873445E-3,1.7828083E-2,3.5120297E-2,6.961187E-3,-1.4924876E-2,2.5454044E-2],"split_indices":[4,2,0,0,0,17,5,2,2,0,0,16,0,0,4,0,0,0,0,0,0,0,0,0,0],"split_type":[0,0,0,0,0,0,0,0,0,0,0,0,0,0,0,0,0,0,0,0,0,0,0,0,0],"sum_hessian":[4.8E1,3E0,4.5E1,1E0,2E0,4.1E1,4E0,3.5E1,6E0,2E0,2E0,3E1,5E0,3E0,3E0,1E0,1E0,2.7E1,3E0,2E0,3E0,1E0,2E0,2E0,1E0],"tree_param":{"num_deleted":"0","num_feature":"21","num_nodes":"25","size_leaf_vector":"1"}},{"base_weights":[1.4588297E-3,-1.2077914E-1,2.8255975E-2,-1.9737037E-1,2.4302483E-2,1.253953E-2,3.2845687E-2,-2.4262485E-1,1.4451027E-3,9.1140745E-3,-2.8357187E-2,-1.1355591E-2,1.498378E-1,-2.9978871E-2,-6.984711E-4,-9.3841554E-5,-4.159737E-3,-8.278936E-2,5.3156503E-2,3.3364296E-2,4.634819E-2,-4.1850093E-3,-3.689089E-2,1.232715E-2,-8.465086E-3,-6.2971595E-3,2.4181366E-2],"categories":[],"categories_nodes":[],"categories_segments":[],"categories_sizes":[],"default_left":[0,0,0,0,0,0,0,0,0,0,0,0,0,0,0,0,0,0,0,0,0,0,0,0,0,0,0],"id":55,"left_children":[1,3,5,7,9,11,-1,13,-1,-1,15,17,19,-1,-1,-1,-1,21,23,-1,25,-1,-1,-1,-1,-1,-1],"loss_changes":[1.6391852E-1,1.0480441E-1,1.8932304E-1,6.1021388E-2,1.6663218E-2,1.3293186E-1,0E0,6.5256536E-2,0E0,0E0,1.0500529E-3,1.6569276E-1,9.8667815E-2,0E0,0E0,0E0,0E0,1.8369108E-1,1.9401994E-1,0E0,1.22068614E-1,0E0,0E0,0E0,0E0,0E0,0E0],"parents":[2147483647,0,0,1,1,2,2,3,3,4,4,5,5,7,7,10,10,11,11,12,12,17,17,18,18,20,20],"right_children":[2,4,6,8,10,12,-1,14,-1,-1,16,18,20,-1,-1,-1,-1,22,24,-1,26,-1,-1,-1,-1,-1,-1],"split_conditions":[2E-1,6E-1,1E0,1E0,4E-1,1E0,3.2845687E-2,6E-1,1.4451027E-3,9.1140745E-3,7.714286E-1,5.4285717E-1,4E-1,-2.9978871E-2,-6.984711E-4,-9.3841554E-5,-4.159737E-3,5.1428574E-1,7.714286E-1,3.3364296E-2,8E-1,-4.1850093E-3,-3.689089E-2,1.232715E-2,-8.465086E-3,-6.2971595E-3,2.4181366E-2],"split_indices":[2,0,0,17,4,17,0,4,0,0,0,0,2,0,0,0,0,0,0,0,4,0,0,0,0,0,0],"split_type":[0,0,0,0,0,0,0,0,0,0,0,0,0,0,0,0,0,0,0,0,0,0,0,0,0,0,0],"sum_hessian":[4.8E1,8E0,4E1,5E0,3E0,3.9E1,1E0,4E0,1E0,1E0,2E0,3.4E1,5E0,3E0,1E0,1E0,1E0,1.6E1,1.8E1,1E0,4E0,1.5E1,1E0,1.2E1,6E0,3E0,1E0],"tree_param":{"num_deleted":"0","num_feature":"21","num_nodes":"27","size_leaf_vector":"1"}},{"base_weights":[1.7722383E-3,-3.4454018E-2,8.618202E-2,-7.2197355E-2,1.2683323E-1,-3.3504486E-2,1.6969575E-1,-1.1517988E-1,3.611713E-2,2.084217E-1,1.3536453E-2,5.604585E-2,-2.8540326E-2,2.1199203E-1,-8.433724E-3,-1.4603761E-1,1.2772369E-2,8.250022E-2,-1.674738E-2,2.6874352E-2,1.3728142E-3,-2.10042E-2,1.580766E-1,8.306198E-2,-3.9517405E-3,3.201529E-2,1.22579575E-1,-2.7730418E-2,-9.810162E-3,-9.904957E-3,2.3003006E-2,-4.660368E-3,1.692833E-2,7.39193E-4,2.2972299E-2,1.812172E-3,1.2031492E-2,2.4184672E-2,2.4843216E-4],"categories":[],"categories_nodes":[],"categories_segments":[],"categories_sizes":[],"default_left":[0,0,0,0,0,0,0,0,0,0,0,0,0,0,0,0,0,0,0,0,0,0,0,0,0,0,0,0,0,0,0,0,0,0,0,0,0,0,0],"id":56,"left_children":[1,3,5,7,9,11,13,15,17,19,21,23,-1,25,-1,27,29,31,-1,-1,-1,-1,33,35,-1,-1,37,-1,-1,-1,-1,-1,-1,-1,-1,-1,-1,-1,-1],"loss_changes":[1.52804E-1,2.2222021E-1,1.5561756E-1,1.3917322E-1,6.1884686E-2,1.73899E-1,1.1458069E-1,8.477986E-2,9.880521E-2,4.328771E-2,1.6246697E-1,1.877289E-2,0E0,3.812319E-2,0E0,7.976672E-2,1.4425527E-1,9.75215E-2,0E0,0E0,0E0,0E0,3.0689932E-2,9.915762E-3,0E0,0E0,8.53397E-2,0E0,0E0,0E0,0E0,0E0,0E0,0E0,0E0,0E0,0E0,0E0,0E0],"parents":[2147483647,0,0,1,1,2,2,3,3,4,4,5,5,6,6,7,7,8,8,9,9,10,10,11,11,13,13,15,15,16,16,17,17,22,22,23,23,26,26],"right_children":[2,4,6,8,10,12,14,16,18,20,22,24,-1,26,-1,28,30,32,-1,-1,-1,-1,34,36,-1,-1,38,-1,-1,-1,-1,-1,-1,-1,-1,-1,-1,-1,-1],"split_conditions":[6.571429E-1,1E0,4E-1,8E-1,6E-1,1E0,6E0,1E0,1E0,5.4285717E-1,8E-1,1E0,-2.8540326E-2,6E-1,-8.433724E-3,2E-1,6E-1,3.4285715E-1,-1.674738E-2,2.6874352E-2,1.3728142E-3,-2.10042E-2,3.4285715E-1,7.714286E-1,-3.9517405E-3,3.201529E-2,7.714286E-1,-2.7730418E-2,-9.810162E-3,-9.904957E-3,2.3003006E-2,-4.660368E-3,1.692833E-2,7.39193E-4,2.2972299E-2,1.812172E-3,1.2031492E-2,2.4184672E-2,2.4843216E-4],"split_indices":[0,17,2,2,2,7,5,11,11,0,2,0,0,2,0,2,2,0,0,0,0,0,0,0,0,0,0,0,0,0,0,0,0,0,0,0,0,0,0],"split_type":[0,0,0,0,0,0,0,0,0,0,0,0,0,0,0,0,0,0,0,0,0,0,0,0,0,0,0,0,0,0,0,0,0,0,0,0,0,0,0],"sum_hessian":[4.8E1,3.4E1,1.4E1,2.8E1,6E0,6E0,8E0,2E1,8E0,3E0,3E0,5E0,1E0,7E0,1E0,1.6E1,4E0,7E0,1E0,2E0,1E0,1E0,2E0,4E0,1E0,2E0,5E0,3E0,1.3E1,3E0,1E0,3E0,4E0,1E0,1E0,2E0,2E0,2E0,3E0],"tree_param":{"num_deleted":"0","num_feature":"21","num_nodes":"39","size_leaf_vector":"1"}},{"base_weights":[2.2356268E-3,-2.724394E-2,9.540129E-2,-6.0059853E-2,5.8764197E-2,1.6792212E-1,-9.162092E-2,-1.0059387E-1,7.591275E-2,1.624434E-1,-1.6328526E-1,1.6276042E-4,2.1583012E-1,-1.1356354E-2,-1.6620731E-2,-1.3096845E-1,6.883383E-2,-1.7674923E-2,1.5052223E-1,2.164418E-1,2.9881796E-4,2.1852875E-2,-3.633995E-2,3.778553E-3,-3.754139E-3,2.578939E-1,-1.8276215E-3,-1.6832352E-4,-1.5351296E-3,-1.564657E-2,5.7172137E-3,-7.731819E-3,1.433239E-2,1.3484956E-4,-3.737259E-3,2.0774715E-2,-1.0576248E-3,2.6491547E-2,-1.2963295E-3,-8.012009E-3,8.056832E-3,3.0106783E-2,1.1436399E-2],"categories":[],"categories_nodes":[],"categories_segments":[],"categories_sizes":[],"default_left":[0,0,0,0,0,0,0,0,0,0,0,0,0,0,0,0,0,0,0,0,0,0,0,0,0,0,0,0,0,0,0,0,0,0,0,0,0,0,0,0,0,0,0],"id":57,"left_children":[1,3,5,7,9,11,13,15,17,19,21,23,25,27,-1,29,31,33,35,37,39,-1,-1,-1,-1,41,-1,-1,-1,-1,-1,-1,-1,-1,-1,-1,-1,-1,-1,-1,-1,-1,-1],"loss_changes":[1.371768E-1,1.1078192E-1,1.7814124E-1,1.6195881E-1,2.7976564E-1,7.229802E-2,2.2059072E-2,1.2223351E-1,5.153816E-2,6.997971E-2,3.8503894E-1,5.6741247E-3,7.3645085E-2,9.009082E-5,0E0,1.0008976E-1,5.4629035E-2,1.5492644E-3,3.9072566E-2,7.0154816E-2,2.5820695E-2,0E0,0E0,0E0,0E0,2.7492344E-3,0E0,0E0,0E0,0E0,0E0,0E0,0E0,0E0,0E0,0E0,0E0,0E0,0E0,0E0,0E0,0E0,0E0],"parents":[2147483647,0,0,1,1,2,2,3,3,4,4,5,5,6,6,7,7,8,8,9,9,10,10,11,11,12,12,13,13,15,15,16,16,17,17,18,18,19,19,20,20,25,25],"right_children":[2,4,6,8,10,12,14,16,18,20,22,24,26,28,-1,30,32,34,36,38,40,-1,-1,-1,-1,42,-1,-1,-1,-1,-1,-1,-1,-1,-1,-1,-1,-1,-1,-1,-1,-1,-1],"split_conditions":[8E-1,1E0,1E0,1E0,6E-1,3E0,3.7142858E-1,1E0,4.857143E-1,7.714286E-1,4.2857143E-1,1E0,1E0,3.4285715E-1,-1.6620731E-2,1E0,4E-1,3.4285715E-1,7.714286E-1,1E0,8.5714287E-1,2.1852875E-2,-3.633995E-2,3.778553E-3,-3.754139E-3,1E0,-1.8276215E-3,-1.6832352E-4,-1.5351296E-3,-1.564657E-2,5.7172137E-3,-7.731819E-3,1.433239E-2,1.3484956E-4,-3.737259E-3,2.0774715E-2,-1.0576248E-3,2.6491547E-2,-1.2963295E-3,-8.012009E-3,8.056832E-3,3.0106783E-2,1.1436399E-2],"split_indices":[4,10,11,2,4,5,0,19,0,0,0,0,19,0,0,17,0,0,0,15,0,0,0,0,0,7,0,0,0,0,0,0,0,0,0,0,0,0,0,0,0,0,0],"split_type":[0,0,0,0,0,0,0,0,0,0,0,0,0,0,0,0,0,0,0,0,0,0,0,0,0,0,0,0,0,0,0,0,0,0,0,0,0,0,0,0,0,0,0],"sum_hessian":[4.8E1,3.7E1,1.1E1,2.7E1,1E1,8E0,3E0,2.1E1,6E0,7E0,3E0,2E0,6E0,2E0,1E0,1.8E1,3E0,3E0,3E0,5E0,2E0,1E0,2E0,1E0,1E0,5E0,1E0,1E0,1E0,1.6E1,2E0,1E0,2E0,2E0,1E0,2E0,1E0,4E0,1E0,1E0,1E0,3E0,2E0],"tree_param":{"num_deleted":"0","num_feature":"21","num_nodes":"43","size_leaf_vector":"1"}},{"base_weights":[2.929415E-3,-1.6044617E-1,1.7072305E-2,-2.2629548E-2,-6.306458E-3,1.8400011E-3,1.4160919E-1,-2.0024935E-2,1.1402539E-1,1.5449524E-4,2.3586082E-1,9.340286E-3,-1.0915841E-1,1.8516016E-1,1.438427E-2,3.5896301E-3,-3.5664558E-3,7.2818757E-3,2.8097248E-2,3.5164913E-3,-1.1648598E-2,-1.7300906E-2,7.621256E-3,2.9027844E-2,5.336126E-3,-1.8136978E-2,1.4009221E-2],"categories":[],"categories_nodes":[],"categories_segments":[],"categories_sizes":[],"default_left":[0,0,0,0,0,0,0,0,0,0,0,0,0,0,0,0,0,0,0,0,0,0,0,0,0,0,0],"id":58,"left_children":[1,3,5,-1,-1,7,9,11,13,15,17,19,21,23,25,-1,-1,-1,-1,-1,-1,-1,-1,-1,-1,-1,-1],"loss_changes":[1.1595872E-1,1.137881E-2,8.700068E-2,0E0,0E0,1.0530626E-1,6.662524E-2,9.524685E-2,4.6952248E-2,5.1209386E-3,1.6052276E-3,9.507987E-2,1.19709976E-1,3.9928257E-2,1.23839855E-1,0E0,0E0,0E0,0E0,0E0,0E0,0E0,0E0,0E0,0E0,0E0,0E0],"parents":[2147483647,0,0,1,1,2,2,5,5,6,6,7,7,8,8,9,9,10,10,11,11,12,12,13,13,14,14],"right_children":[2,4,6,-1,-1,8,10,12,14,16,18,20,22,24,26,-1,-1,-1,-1,-1,-1,-1,-1,-1,-1,-1,-1],"split_conditions":[2E-1,2E-1,9.142857E-1,-2.2629548E-2,-6.306458E-3,1E0,3E0,1E0,6E-1,1E0,1E0,7.714286E-1,1E0,3.4285715E-1,8E-1,3.5896301E-3,-3.5664558E-3,7.2818757E-3,2.8097248E-2,3.5164913E-3,-1.1648598E-2,-1.7300906E-2,7.621256E-3,2.9027844E-2,5.336126E-3,-1.8136978E-2,1.4009221E-2],"split_indices":[4,2,0,0,0,17,5,8,2,0,0,0,19,0,2,0,0,0,0,0,0,0,0,0,0,0,0],"split_type":[0,0,0,0,0,0,0,0,0,0,0,0,0,0,0,0,0,0,0,0,0,0,0,0,0,0,0],"sum_hessian":[4.8E1,3E0,4.5E1,1E0,2E0,4.1E1,4E0,3.5E1,6E0,2E0,2E0,2.7E1,8E0,3E0,3E0,1E0,1E0,1E0,1E0,2.3E1,4E0,6E0,2E0,1E0,2E0,1E0,2E0],"tree_param":{"num_deleted":"0","num_feature":"21","num_nodes":"27","size_leaf_vector":"1"}},{"base_weights":[3.021688E-3,-2.7806882E-2,7.475357E-2,-5.937369E-2,1.0694231E-1,-2.9236112E-2,1.4732848E-1,-1.8987751E-1,-3.089798E-2,1.752348E-1,1.1914253E-2,5.1719982E-2,-2.5748635E-2,1.8331695E-1,-7.028961E-3,-2.7052848E-2,-4.593404E-2,-7.4388254E-3,-2.0045217E-2,2.7576447E-2,4.9803417E-2,-1.1490122E-1,1.9618034E-2,7.561646E-2,-3.3881187E-3,2.6940538E-2,1.0971991E-1,-3.3578873E-4,-6.5543177E-3,-6.5655424E-3,1.3500704E-2,6.719017E-3,7.5149536E-4,-5.054474E-6,-1.7230129E-2,9.23872E-3,4.2667388E-4,2.1264141E-2,5.09882E-4],"categories":[],"categories_nodes":[],"categories_segments":[],"categories_sizes":[],"default_left":[0,0,0,0,0,0,0,0,0,0,0,0,0,0,0,0,0,0,0,0,0,0,0,0,0,0,0,0,0,0,0,0,0,0,0,0,0,0,0],"id":59,"left_children":[1,3,5,7,9,11,13,15,17,19,21,23,-1,25,-1,-1,27,29,-1,-1,31,33,-1,35,-1,-1,37,-1,-1,-1,-1,-1,-1,-1,-1,-1,-1,-1,-1],"loss_changes":[1.10436834E-1,1.5522565E-1,1.1751294E-1,1.01902656E-1,4.3340124E-2,1.4266492E-1,8.337094E-2,4.561943E-2,9.794881E-2,3.67043E-2,1.1601252E-1,1.4835373E-2,0E0,2.1127671E-2,0E0,0E0,2.2845585E-3,1.9959636E-1,0E0,0E0,1.7008465E-3,1.9768603E-2,0E0,5.5887457E-3,0E0,0E0,6.352234E-2,0E0,0E0,0E0,0E0,0E0,0E0,0E0,0E0,0E0,0E0,0E0,0E0],"parents":[2147483647,0,0,1,1,2,2,3,3,4,4,5,5,6,6,7,7,8,8,9,9,10,10,11,11,13,13,16,16,17,17,20,20,21,21,23,23,26,26],"right_children":[2,4,6,8,10,12,14,16,18,20,22,24,-1,26,-1,-1,28,30,-1,-1,32,34,-1,36,-1,-1,38,-1,-1,-1,-1,-1,-1,-1,-1,-1,-1,-1,-1],"split_conditions":[6.571429E-1,1E0,4E-1,2E-1,6E-1,1E0,6E0,1E0,6E-1,3.4285715E-1,8E-1,1E0,-2.5748635E-2,6E-1,-7.028961E-3,-2.7052848E-2,3.4285715E-1,5.4285717E-1,-2.0045217E-2,2.7576447E-2,5.4285717E-1,3.4285715E-1,1.9618034E-2,1E0,-3.3881187E-3,2.6940538E-2,7.714286E-1,-3.3578873E-4,-6.5543177E-3,-6.5655424E-3,1.3500704E-2,6.719017E-3,7.5149536E-4,-5.054474E-6,-1.7230129E-2,9.23872E-3,4.2667388E-4,2.1264141E-2,5.09882E-4],"split_indices":[0,17,2,2,2,7,5,7,0,0,4,0,0,2,0,0,0,0,0,0,0,0,0,16,0,0,0,0,0,0,0,0,0,0,0,0,0,0,0],"split_type":[0,0,0,0,0,0,0,0,0,0,0,0,0,0,0,0,0,0,0,0,0,0,0,0,0,0,0,0,0,0,0,0,0,0,0,0,0,0,0],"sum_hessian":[4.8E1,3.4E1,1.4E1,2.8E1,6E0,6E0,8E0,4E0,2.4E1,3E0,3E0,5E0,1E0,7E0,1E0,2E0,2E0,2.2E1,2E0,1E0,2E0,2E0,1E0,4E0,1E0,2E0,5E0,1E0,1E0,1.6E1,6E0,1E0,1E0,1E0,1E0,3E0,1E0,2E0,3E0],"tree_param":{"num_deleted":"0","num_feature":"21","num_nodes":"39","size_leaf_vector":"1"}},{"base_weights":[2.9762425E-3,-2.1384591E-2,7.987086E-2,-4.8917975E-2,5.0644442E-2,1.4254189E-1,-8.110666E-2,-8.3234094E-2,6.5920964E-2,1.3974214E-1,-1.4021206E-1,1.1062622E-3,1.8279402E-1,-1.0833104E-2,-1.4596367E-2,-1.0791909E-1,5.4828167E-2,-1.8785477E-2,1.3414717E-1,1.8266647E-1,7.3127747E-3,2.0912647E-2,-3.2636706E-2,3.3846856E-3,-3.2187463E-3,2.1922334E-1,-1.789093E-3,-3.1900406E-4,-1.3059616E-3,-3.8750563E-3,-1.804674E-2,-7.1928026E-3,1.2105624E-2,-2.3937225E-4,-3.398037E-3,1.7996406E-2,-1.6517639E-4,2.2351608E-2,-1.0790825E-3,-6.677532E-3,7.7744485E-3,6.455803E-3,2.372448E-2],"categories":[],"categories_nodes":[],"categories_segments":[],"categories_sizes":[],"default_left":[0,0,0,0,0,0,0,0,0,0,0,0,0,0,0,0,0,0,0,0,0,0,0,0,0,0,0,0,0,0,0,0,0,0,0,0,0,0,0,0,0,0,0],"id":60,"left_children":[1,3,5,7,9,11,13,15,17,19,21,23,25,27,-1,29,31,33,35,37,39,-1,-1,-1,-1,41,-1,-1,-1,-1,-1,-1,-1,-1,-1,-1,-1,-1,-1,-1,-1,-1,-1],"loss_changes":[9.349564E-2,7.783913E-2,1.3262463E-1,1.1583003E-1,2.0664714E-1,5.1035553E-2,1.6649693E-2,8.0894455E-2,4.2974412E-2,4.4139728E-2,3.2837644E-1,4.359613E-3,5.5097833E-2,9.391399E-6,0E0,8.834994E-2,4.228661E-2,9.149441E-4,2.5184803E-2,4.982786E-2,2.0845868E-2,0E0,0E0,0E0,0E0,1.4077127E-3,0E0,0E0,0E0,0E0,0E0,0E0,0E0,0E0,0E0,0E0,0E0,0E0,0E0,0E0,0E0,0E0,0E0],"parents":[2147483647,0,0,1,1,2,2,3,3,4,4,5,5,6,6,7,7,8,8,9,9,10,10,11,11,12,12,13,13,15,15,16,16,17,17,18,18,19,19,20,20,25,25],"right_children":[2,4,6,8,10,12,14,16,18,20,22,24,26,28,-1,30,32,34,36,38,40,-1,-1,-1,-1,42,-1,-1,-1,-1,-1,-1,-1,-1,-1,-1,-1,-1,-1,-1,-1,-1,-1],"split_conditions":[8E-1,1E0,1E0,1E0,6E-1,3E0,3.7142858E-1,1E0,4.857143E-1,7.714286E-1,4.2857143E-1,1E0,1E0,3.4285715E-1,-1.4596367E-2,5.714286E-1,4E-1,3.4285715E-1,7.714286E-1,1E0,8.5714287E-1,2.0912647E-2,-3.2636706E-2,3.3846856E-3,-3.2187463E-3,4E-1,-1.789093E-3,-3.1900406E-4,-1.3059616E-3,-3.8750563E-3,-1.804674E-2,-7.1928026E-3,1.2105624E-2,-2.3937225E-4,-3.398037E-3,1.7996406E-2,-1.6517639E-4,2.2351608E-2,-1.0790825E-3,-6.677532E-3,7.7744485E-3,6.455803E-3,2.372448E-2],"split_indices":[4,10,11,2,4,5,0,19,0,0,0,0,19,0,0,0,0,0,0,15,0,0,0,0,0,2,0,0,0,0,0,0,0,0,0,0,0,0,0,0,0,0,0],"split_type":[0,0,0,0,0,0,0,0,0,0,0,0,0,0,0,0,0,0,0,0,0,0,0,0,0,0,0,0,0,0,0,0,0,0,0,0,0,0,0,0,0,0,0],"sum_hessian":[4.8E1,3.7E1,1.1E1,2.7E1,1E1,8E0,3E0,2.1E1,6E0,7E0,3E0,2E0,6E0,2E0,1E0,1.8E1,3E0,3E0,3E0,5E0,2E0,1E0,2E0,1E0,1E0,5E0,1E0,1E0,1E0,1E1,8E0,1E0,2E0,2E0,1E0,2E0,1E0,4E0,1E0,1E0,1E0,1E0,4E0],"tree_param":{"num_deleted":"0","num_feature":"21","num_nodes":"43","size_leaf_vector":"1"}},{"base_weights":[3.0904303E-3,-1.3868356E-1,1.535142E-2,-1.9951677E-2,-5.1900228E-3,